{"learner":{"attributes":{"scikit_learn":"{\"_estimator_type\": \"classifier\"}"},"feature_names":["amount_try","term_days","sme_age_months","sme_prior_invoices","sme_ontime_ratio","buyer_repeat_count","buyer_avg_days_late","sector__agriculture","sector__automotive","sector__construction","sector__electronics","sector__food_beverage","sector__logistics","sector__retail","sector__services","sector__textile","buyer_tier__enterprise","buyer_tier__micro","buyer_tier__mid_market","buyer_tier__small_business","macro_scenario__currency_shock","macro_scenario__high_inflation","macro_scenario__stable"],"feature_types":["float","int","int","int","float","int","float","int","int","int","int","int","int","int","int","int","int","int","int","int","int","int","int"],"gradient_booster":{"model":{"gbtree_model_param":{"num_parallel_tree":"1","num_trees":"300"},"iteration_indptr":[0,1,2,3,4,5,6,7,8,9,10,11,12,13,14,15,16,17,18,19,20,21,22,23,24,25,26,27,28,29,30,31,32,33,34,35,36,37,38,39,40,41,42,43,44,45,46,47,48,49,50,51,52,53,54,55,56,57,58,59,60,61,62,63,64,65,66,67,68,69,70,71,72,73,74,75,76,77,78,79,80,81,82,83,84,85,86,87,88,89,90,91,92,93,94,95,96,97,98,99,100,101,102,103,104,105,106,107,108,109,110,111,112,113,114,115,116,117,118,119,120,121,122,123,124,125,126,127,128,129,130,131,132,133,134,135,136,137,138,139,140,141,142,143,144,145,146,147,148,149,150,151,152,153,154,155,156,157,158,159,160,161,162,163,164,165,166,167,168,169,170,171,172,173,174,175,176,177,178,179,180,181,182,183,184,185,186,187,188,189,190,191,192,193,194,195,196,197,198,199,200,201,202,203,204,205,206,207,208,209,210,211,212,213,214,215,216,217,218,219,220,221,222,223,224,225,226,227,228,229,230,231,232,233,234,235,236,237,238,239,240,241,242,243,244,245,246,247,248,249,250,251,252,253,254,255,256,257,258,259,260,261,262,263,264,265,266,267,268,269,270,271,272,273,274,275,276,277,278,279,280,281,282,283,284,285,286,287,288,289,290,291,292,293,294,295,296,297,298,299,300],"tree_info":[0,0,0,0,0,0,0,0,0,0,0,0,0,0,0,0,0,0,0,0,0,0,0,0,0,0,0,0,0,0,0,0,0,0,0,0,0,0,0,0,0,0,0,0,0,0,0,0,0,0,0,0,0,0,0,0,0,0,0,0,0,0,0,0,0,0,0,0,0,0,0,0,0,0,0,0,0,0,0,0,0,0,0,0,0,0,0,0,0,0,0,0,0,0,0,0,0,0,0,0,0,0,0,0,0,0,0,0,0,0,0,0,0,0,0,0,0,0,0,0,0,0,0,0,0,0,0,0,0,0,0,0,0,0,0,0,0,0,0,0,0,0,0,0,0,0,0,0,0,0,0,0,0,0,0,0,0,0,0,0,0,0,0,0,0,0,0,0,0,0,0,0,0,0,0,0,0,0,0,0,0,0,0,0,0,0,0,0,0,0,0,0,0,0,0,0,0,0,0,0,0,0,0,0,0,0,0,0,0,0,0,0,0,0,0,0,0,0,0,0,0,0,0,0,0,0,0,0,0,0,0,0,0,0,0,0,0,0,0,0,0,0,0,0,0,0,0,0,0,0,0,0,0,0,0,0,0,0,0,0,0,0,0,0,0,0,0,0,0,0,0,0,0,0,0,0,0,0,0,0,0,0,0,0,0,0,0,0,0,0,0,0,0,0,0,0,0,0,0,0],"trees":[{"base_weights":[-3.8475813E-3,-2.2994722E-1,8.137417E-1,-9.413965E-2,-1.295856E0,9.544298E-1,-5.639706E-1,2.2241034E-1,-7.646576E-1,-1.3786852E0,6.73526E-1,1.2817284E0,1.9526917E-1,-9.6895486E-1,4.1933745E-1,2.8108737E-2,5.0285727E-1,-9.877363E-1,-3.0037943E-1,-1.5382445E0,-9.041591E-1,-3.3527818E-1,6.882658E-2,1.1635901E0,1.5805478E0,8.255324E-3,9.010548E-1,-2.8391612E-1,-9.411765E-2,-3.2631606E-1,1.1164416E0,-2.0808741E-2,7.892403E-3,1.6200682E-2,4.824729E-2,-5.86868E-2,-2.8304145E-2,-2.0483736E-2,3.535102E-2,-8.453162E-2,-5.0897863E-2,7.3292437E-3,-7.973478E-2,6.2100746E-2,-7.1428575E-2,5.1773366E-2,6.734995E-2,8.0884255E-2,9.992715E-3,1.9192861E-2,-1.8690413E-2,3.6067108E-4,5.5439044E-2,4.6060547E-2,-3.868666E-2,-7.5E-2,2.5337825E-2,1.755012E-2,6.882658E-2],"categories":[],"categories_nodes":[],"categories_segments":[],"categories_sizes":[],"default_left":[0,0,0,0,0,0,0,0,0,0,0,0,0,0,0,0,0,0,0,0,0,0,0,0,0,0,0,0,0,0,0,0,0,0,0,0,0,0,0,0,0,0,0,0,0,0,0,0,0,0,0,0,0,0,0,0,0,0,0],"id":0,"left_children":[1,3,5,7,9,11,13,15,17,19,21,23,25,27,29,31,33,35,37,39,41,43,-1,45,47,49,51,53,-1,55,57,-1,-1,-1,-1,-1,-1,-1,-1,-1,-1,-1,-1,-1,-1,-1,-1,-1,-1,-1,-1,-1,-1,-1,-1,-1,-1,-1,-1],"loss_changes":[5.1144135E2,3.1361542E2,1.1671152E2,4.084298E2,4.0869507E1,1.349685E2,2.2771748E1,7.122714E1,6.3614014E1,1.6424805E1,7.9465756E0,1.157843E1,2.1787235E1,2.4545052E1,9.2432165E0,4.464351E1,4.390216E1,3.1990295E1,2.2498274E1,1.2127258E1,4.4955235E1,1.06354885E1,0E0,5.095154E0,5.05542E0,1.9020409E1,6.412361E0,1.4927851E1,0E0,9.586555E0,1.3193913E0,0E0,0E0,0E0,0E0,0E0,0E0,0E0,0E0,0E0,0E0,0E0,0E0,0E0,0E0,0E0,0E0,0E0,0E0,0E0,0E0,0E0,0E0,0E0,0E0,0E0,0E0,0E0,0E0],"parents":[2147483647,0,0,1,1,2,2,3,3,4,4,5,5,6,6,7,7,8,8,9,9,10,10,11,11,12,12,13,13,14,14,15,15,16,16,17,17,18,18,19,19,20,20,21,21,23,23,24,24,25,25,26,26,27,27,29,29,30,30],"right_children":[2,4,6,8,10,12,14,16,18,20,22,24,26,28,30,32,34,36,38,40,42,44,-1,46,48,50,52,54,-1,56,58,-1,-1,-1,-1,-1,-1,-1,-1,-1,-1,-1,-1,-1,-1,-1,-1,-1,-1,-1,-1,-1,-1,-1,-1,-1,-1,-1,-1],"split_conditions":[1E0,1E0,1E0,1E0,1.87E1,1E0,7.9E0,7.4E1,8E1,1E0,5E0,1E0,1.42E2,5.361863E4,5E0,1.5E0,1E0,6.8E0,1.39E1,1.2106539E5,2.354654E4,1E0,6.882658E-2,1E0,1.23E1,3E0,1.5E0,2E0,-9.411765E-2,5.127769E4,4.298984E4,-2.0808741E-2,7.892403E-3,1.6200682E-2,4.824729E-2,-5.86868E-2,-2.8304145E-2,-2.0483736E-2,3.535102E-2,-8.453162E-2,-5.0897863E-2,7.3292437E-3,-7.973478E-2,6.2100746E-2,-7.1428575E-2,5.1773366E-2,6.734995E-2,8.0884255E-2,9.992715E-3,1.9192861E-2,-1.8690413E-2,3.6067108E-4,5.5439044E-2,4.6060547E-2,-3.868666E-2,-7.5E-2,2.5337825E-2,1.755012E-2,6.882658E-2],"split_indices":[9,16,16,18,6,18,6,1,1,15,5,20,1,0,5,6,20,6,6,0,0,5,0,21,6,5,6,5,0,0,0,0,0,0,0,0,0,0,0,0,0,0,0,0,0,0,0,0,0,0,0,0,0,0,0,0,0,0,0],"split_type":[0,0,0,0,0,0,0,0,0,0,0,0,0,0,0,0,0,0,0,0,0,0,0,0,0,0,0,0,0,0,0,0,0,0,0,0,0,0,0,0,0,0,0,0,0,0,0,0,0,0,0,0,0,0,0,0,0,0,0],"sum_hessian":[2.7646794E3,2.166316E3,5.983635E2,1.9224629E3,2.4385292E2,5.432007E2,5.5162888E1,1.3063883E3,6.160746E2,2.3429863E2,9.5542965E0,3.7907907E2,1.6412158E2,3.9081444E1,1.6081444E1,7.723692E2,5.340191E2,4.1536874E2,2.0070586E2,1.7366289E2,6.0635742E1,4.138574E0,5.4157224E0,2.7518036E2,1.0389873E2,1.3054297E2,3.3578613E1,2.3081444E1,1.6E1,8.027148E0,8.0542965E0,1.7407011E2,5.982991E2,3.8623465E2,1.4778447E2,2.8698868E2,1.2838008E2,1.8159726E2,1.9108593E1,1.3258145E2,4.1081444E1,2.4358593E1,3.627715E1,1.6385741E0,2.5E0,1.6592021E2,1.0926015E2,1.0101015E2,2.8885741E0,6.5825775E1,6.4717186E1,6.5271482E0,2.7051464E1,6.4157224E0,1.6665722E1,3E0,5.0271482E0,2.6385741E0,5.4157224E0],"tree_param":{"num_deleted":"0","num_feature":"23","num_nodes":"59","size_leaf_vector":"1"}},{"base_weights":[-1.884653E-2,1.2331754E-1,-1.2295953E0,4.1463745E-1,-4.590009E-1,-1.5895759E0,-1.0239874E0,1.841598E-1,1.1822803E0,-9.725494E-1,-2.2519788E-1,-1.7473323E0,-8.641829E-1,-1.0498282E0,4.9069848E-2,-3.200636E-2,4.7734126E-1,1.3532759E0,9.515774E-1,-1.1568044E0,-1.6553625E-1,-3.117238E-1,1.0138264E0,-9.444054E-2,-1.265357E0,3.737573E-1,-8.816916E-2,-9.698578E-1,-9.095988E-2,7.05463E-3,-1.0456574E-2,1.6800078E-2,4.4579685E-2,7.4119866E-3,6.844934E-2,6.582247E-2,3.278253E-2,-6.902316E-2,-1.629885E-2,3.285231E-2,-2.7200863E-2,-7.192656E-4,-3.326894E-2,6.728773E-2,3.331628E-2,3.8027253E-2,-7.607318E-2,6.0237836E-2,-6.872778E-2,-5.079201E-2,1.4183057E-2],"categories":[],"categories_nodes":[],"categories_segments":[],"categories_sizes":[],"default_left":[0,0,0,0,0,0,0,0,0,0,0,0,0,0,0,0,0,0,0,0,0,0,0,0,0,0,0,0,0,0,0,0,0,0,0,0,0,0,0,0,0,0,0,0,0,0,0,0,0,0,0],"id":1,"left_children":[1,3,5,7,9,11,13,15,17,19,21,23,25,27,-1,29,31,33,35,37,39,41,43,-1,45,47,-1,49,-1,-1,-1,-1,-1,-1,-1,-1,-1,-1,-1,-1,-1,-1,-1,-1,-1,-1,-1,-1,-1,-1,-1],"loss_changes":[4.7244055E2,4.1690567E2,1.9719421E1,2.8956003E2,9.8188995E1,1.0281128E1,1.0688614E1,7.992244E1,1.3624634E1,3.7889908E1,6.083394E1,3.3142548E0,2.3349709E1,9.5868225E0,0E0,2.230969E1,3.103437E1,3.8624573E0,1.6875473E1,3.8262604E1,1.554134E1,5.555543E1,3.3806E0,0E0,1.2578426E1,1.5315216E1,0E0,1.0044403E1,0E0,0E0,0E0,0E0,0E0,0E0,0E0,0E0,0E0,0E0,0E0,0E0,0E0,0E0,0E0,0E0,0E0,0E0,0E0,0E0,0E0,0E0,0E0],"parents":[2147483647,0,0,1,1,2,2,3,3,4,4,5,5,6,6,7,7,8,8,9,9,10,10,11,11,12,12,13,13,15,15,16,16,17,17,18,18,19,19,20,20,21,21,22,22,24,24,25,25,27,27],"right_children":[2,4,6,8,10,12,14,16,18,20,22,24,26,28,-1,30,32,34,36,38,40,42,44,-1,46,48,-1,50,-1,-1,-1,-1,-1,-1,-1,-1,-1,-1,-1,-1,-1,-1,-1,-1,-1,-1,-1,-1,-1,-1,-1],"split_conditions":[1E0,1E0,6.2E1,1E0,5.6E1,1E0,1.64E2,7.4E1,1E0,8.3E1,1.42E2,1.2106539E5,1.3E1,4.6E1,4.9069848E-2,1E0,1E0,8.5E1,2.5E1,1E0,9.5E1,1E0,8E0,-9.444054E-2,1.22594E5,1E0,-8.816916E-2,4.0099253E5,-9.095988E-2,7.05463E-3,-1.0456574E-2,1.6800078E-2,4.4579685E-2,7.4119866E-3,6.844934E-2,6.582247E-2,3.278253E-2,-6.902316E-2,-1.629885E-2,3.285231E-2,-2.7200863E-2,-7.192656E-4,-3.326894E-2,6.728773E-2,3.331628E-2,3.8027253E-2,-7.607318E-2,6.0237836E-2,-6.872778E-2,-5.079201E-2,1.4183057E-2],"split_indices":[16,18,1,9,1,12,1,1,22,2,1,0,2,3,0,22,17,1,2,12,2,22,3,0,0,22,0,0,0,0,0,0,0,0,0,0,0,0,0,0,0,0,0,0,0,0,0,0,0,0,0],"split_type":[0,0,0,0,0,0,0,0,0,0,0,0,0,0,0,0,0,0,0,0,0,0,0,0,0,0,0,0,0,0,0,0,0,0,0,0,0,0,0,0,0,0,0,0,0,0,0,0,0,0,0],"sum_hessian":[2.7428723E3,2.455455E3,2.8741724E2,1.636861E3,8.185942E2,1.02037544E2,1.853797E2,1.2598442E3,3.7701666E2,2.5510223E2,5.63492E2,8.2653496E1,1.9384048E1,1.8349178E2,1.8879211E0,7.256815E2,5.341627E2,2.1373305E2,1.6328362E2,2.0733145E2,4.7770782E1,5.274093E2,3.6082653E1,6.1640663E1,2.1012833E1,8.401687E0,1.0982362E1,1.6826268E2,1.5229104E1,3.6711484E2,3.5856668E2,3.996249E2,1.3453783E2,2.8850508E0,2.10848E2,7.157926E1,9.1704346E1,1.6283475E2,4.4496693E1,1.48216715E1,3.2949112E1,2.8708273E2,2.4032661E2,1.6985582E1,1.9097069E1,2.1371899E0,1.8875643E1,5.9055786E0,2.4961076E0,1.6249167E2,5.7710066E0],"tree_param":{"num_deleted":"0","num_feature":"23","num_nodes":"51","size_leaf_vector":"1"}},{"base_weights":[2.308066E-2,1.5698202E-1,-1.12235E0,4.322606E-1,-4.3611735E-1,-1.207795E0,1.1994175E0,2.1837762E-1,1.1627293E0,-7.508877E-1,-5.0618567E-2,-1.4917094E0,-1.0146205E0,8.1378184E-2,1.00844726E-1,7.171231E-2,6.877519E-1,1.3277942E0,9.393847E-1,-9.3145126E-1,-3.457874E-1,-1.5649644E-1,9.236897E-1,4.9571026E-2,-1.5428557E0,-7.606518E-1,-1.5115857E0,-5.2789595E-2,4.827767E-2,1.4741738E-2,-1.1115521E-2,7.9523185E-3,4.504669E-2,7.0950235E-3,6.714079E-2,4.9256515E-2,-6.7713046E-3,-8.4933296E-2,-4.0410277E-2,-4.2695206E-2,-2.6190977E-3,-1.4091237E-2,2.1192824E-2,-1.8374192E-2,5.5319447E-2,-7.969614E-2,2.7521614E-2,-5.8095664E-2,-3.0502044E-3,-8.050397E-2,7.189456E-3],"categories":[],"categories_nodes":[],"categories_segments":[],"categories_sizes":[],"default_left":[0,0,0,0,0,0,0,0,0,0,0,0,0,0,0,0,0,0,0,0,0,0,0,0,0,0,0,0,0,0,0,0,0,0,0,0,0,0,0,0,0,0,0,0,0,0,0,0,0,0,0],"id":2,"left_children":[1,3,5,7,9,11,13,15,17,19,21,23,25,-1,27,29,31,33,35,37,39,41,43,-1,45,47,49,-1,-1,-1,-1,-1,-1,-1,-1,-1,-1,-1,-1,-1,-1,-1,-1,-1,-1,-1,-1,-1,-1,-1,-1],"loss_changes":[4.306711E2,4.1063E2,5.9753235E1,2.6807956E2,9.672359E1,1.4060516E1,4.978573E0,9.149129E1,1.3084839E1,3.1782364E1,3.7230885E1,1.5862061E1,2.0573257E1,0E0,5.152333E0,6.660516E1,3.552568E1,3.7486267E0,8.424698E0,2.7277496E1,2.0366096E1,2.3767494E1,8.75342E0,0E0,1.2739288E1,3.2471832E1,9.557037E0,0E0,0E0,0E0,0E0,0E0,0E0,0E0,0E0,0E0,0E0,0E0,0E0,0E0,0E0,0E0,0E0,0E0,0E0,0E0,0E0,0E0,0E0,0E0,0E0],"parents":[2147483647,0,0,1,1,2,2,3,3,4,4,5,5,6,6,7,7,8,8,9,9,10,10,11,11,12,12,14,14,15,15,16,16,17,17,18,18,19,19,20,20,21,21,22,22,24,24,25,25,26,26],"right_children":[2,4,6,8,10,12,14,16,18,20,22,24,26,-1,28,30,32,34,36,38,40,42,44,-1,46,48,50,-1,-1,-1,-1,-1,-1,-1,-1,-1,-1,-1,-1,-1,-1,-1,-1,-1,-1,-1,-1,-1,-1,-1,-1],"split_conditions":[1E0,1E0,2.23E1,1E0,8E1,6.5E1,2.517237E4,1E0,1E0,6.8E0,1.42E2,4.45E-1,8.47E-1,8.1378184E-2,1E0,1E0,5.5E1,8.5E1,1.48E2,1.594712E4,8E-1,1.5335184E5,1.5E0,4.9571026E-2,1.81E1,7.96E-1,9.83E-1,-5.2789595E-2,4.827767E-2,1.4741738E-2,-1.1115521E-2,7.9523185E-3,4.504669E-2,7.0950235E-3,6.714079E-2,4.9256515E-2,-6.7713046E-3,-8.4933296E-2,-4.0410277E-2,-4.2695206E-2,-2.6190977E-3,-1.4091237E-2,2.1192824E-2,-1.8374192E-2,5.5319447E-2,-7.969614E-2,2.7521614E-2,-5.8095664E-2,-3.0502044E-3,-8.050397E-2,7.189456E-3],"split_indices":[16,18,6,9,1,1,0,17,22,6,1,4,4,0,21,22,1,1,1,0,4,0,6,0,6,4,4,0,0,0,0,0,0,0,0,0,0,0,0,0,0,0,0,0,0,0,0,0,0,0,0],"split_type":[0,0,0,0,0,0,0,0,0,0,0,0,0,0,0,0,0,0,0,0,0,0,0,0,0,0,0,0,0,0,0,0,0,0,0,0,0,0,0,0,0,0,0,0,0,0,0,0,0,0,0],"sum_hessian":[2.8058179E3,2.5129194E3,2.9289847E2,1.7165012E3,7.964183E2,2.8296466E2,9.933783E0,1.3287415E3,3.8775974E2,4.379072E2,3.5851108E2,1.11851295E2,1.7111337E2,6.801508E0,3.1322746E0,1.013276E3,3.1546545E2,2.2012747E2,1.6763226E2,3.0199915E2,1.3590805E2,3.241276E2,3.4383495E1,1.8863411E0,1.0996496E2,1.1491691E2,5.619647E1,1.245419E0,1.8868556E0,5.760962E2,4.371798E2,9.1150986E1,2.2431445E2,2.8841288E0,2.1724335E2,1.6086888E2,6.7633853E0,4.0029522E1,2.6196964E2,4.9051258E1,8.6856804E1,2.6698587E2,5.714171E1,4.136756E0,3.0246738E1,1.07579056E2,2.3859017E0,7.261188E1,4.2305027E1,5.3066418E1,3.1300507E0],"tree_param":{"num_deleted":"0","num_feature":"23","num_nodes":"51","size_leaf_vector":"1"}},{"base_weights":[-4.89192E-3,-2.5918528E-1,5.7724375E-1,-3.8613653E-1,5.580161E-1,3.156148E-1,8.4280866E-1,-7.998837E-1,-1.8150399E-2,-2.7169706E-2,8.1858826E-1,-5.098617E-2,1.2124428E0,4.4080502E-1,1.0623841E0,-8.701213E-1,6.969512E-2,-4.2307973E-1,1.1341492E-1,3.8478327E-1,-5.262023E-1,8.5983795E-1,-7.489332E-2,-8.5190195E-1,1.9844443E-1,1.2534848E0,-6.3624494E-2,2.6648095E-1,1.0590421E0,1.2329062E0,7.881165E-1,-6.1597E-2,-3.633363E-2,-2.9616633E-2,3.8835097E-2,-6.5556834E-3,-4.08948E-2,-1.116577E-3,2.0377357E-2,5.112317E-2,-1.217685E-2,-4.930527E-2,3.9896492E-2,4.596122E-2,-1.912068E-2,-1.2302234E-2,-7.959351E-2,5.7912655E-3,5.387145E-2,6.3672595E-2,1.2659731E-2,2.2086529E-2,-1.5750911E-2,7.1822815E-2,-3.4900807E-2,4.8271608E-2,7.051499E-2,-7.4134015E-2,4.2586964E-2],"categories":[],"categories_nodes":[],"categories_segments":[],"categories_sizes":[],"default_left":[0,0,0,0,0,0,0,0,0,0,0,0,0,0,0,0,0,0,0,0,0,0,0,0,0,0,0,0,0,0,0,0,0,0,0,0,0,0,0,0,0,0,0,0,0,0,0,0,0,0,0,0,0,0,0,0,0,0,0],"id":3,"left_children":[1,3,5,7,9,11,13,15,17,19,21,23,25,27,29,31,33,35,37,39,41,43,-1,45,47,49,-1,51,53,55,57,-1,-1,-1,-1,-1,-1,-1,-1,-1,-1,-1,-1,-1,-1,-1,-1,-1,-1,-1,-1,-1,-1,-1,-1,-1,-1,-1,-1],"loss_changes":[4.0806454E2,1.9924968E2,5.796219E1,2.528976E2,3.9419502E1,1.3938438E2,3.6190674E1,4.7818115E1,4.6940697E1,1.676595E1,1.837291E1,6.045235E1,1.413942E1,1.5713259E1,1.1557068E1,3.665924E1,2.8245413E1,2.479929E1,2.656646E1,1.8164267E1,2.3231579E1,1.3358292E1,0E0,3.1819347E1,1.6644108E1,2.1043396E0,0E0,1.2073452E1,2.2427494E1,6.392151E0,1.6501106E1,0E0,0E0,0E0,0E0,0E0,0E0,0E0,0E0,0E0,0E0,0E0,0E0,0E0,0E0,0E0,0E0,0E0,0E0,0E0,0E0,0E0,0E0,0E0,0E0,0E0,0E0,0E0,0E0],"parents":[2147483647,0,0,1,1,2,2,3,3,4,4,5,5,6,6,7,7,8,8,9,9,10,10,11,11,12,12,13,13,14,14,15,15,16,16,17,17,18,18,19,19,20,20,21,21,23,23,24,24,25,25,27,27,28,28,29,29,30,30],"right_children":[2,4,6,8,10,12,14,16,18,20,22,24,26,28,30,32,34,36,38,40,42,44,-1,46,48,50,-1,52,54,56,58,-1,-1,-1,-1,-1,-1,-1,-1,-1,-1,-1,-1,-1,-1,-1,-1,-1,-1,-1,-1,-1,-1,-1,-1,-1,-1,-1,-1],"split_conditions":[9.8E1,1E0,1E0,1E0,5.4E1,1E0,1E0,1.46E1,1.6E0,3E0,1.62E2,1E0,1.54E2,5E0,1E0,1E0,6.9E1,1E0,7.5E1,2.3E0,8.7E0,9.4E1,-7.489332E-2,1E0,1.39E1,3.7854572E5,-6.3624494E-2,6.4E0,1.11E2,3.4E1,4E-1,-6.1597E-2,-3.633363E-2,-2.9616633E-2,3.8835097E-2,-6.5556834E-3,-4.08948E-2,-1.116577E-3,2.0377357E-2,5.112317E-2,-1.217685E-2,-4.930527E-2,3.9896492E-2,4.596122E-2,-1.912068E-2,-1.2302234E-2,-7.959351E-2,5.7912655E-3,5.387145E-2,6.3672595E-2,1.2659731E-2,2.2086529E-2,-1.5750911E-2,7.1822815E-2,-3.4900807E-2,4.8271608E-2,7.051499E-2,-7.4134015E-2,4.2586964E-2],"split_indices":[1,17,19,19,1,17,9,6,6,5,2,18,2,5,22,18,1,22,1,6,6,1,0,22,6,0,0,6,1,2,6,0,0,0,0,0,0,0,0,0,0,0,0,0,0,0,0,0,0,0,0,0,0,0,0,0,0,0,0],"split_type":[0,0,0,0,0,0,0,0,0,0,0,0,0,0,0,0,0,0,0,0,0,0,0,0,0,0,0,0,0,0,0,0,0,0,0,0,0,0,0,0,0,0,0,0,0,0,0,0,0,0,0,0,0,0,0,0,0,0,0],"sum_hessian":[2.754563E3,1.9174995E3,8.370634E2,1.6601282E3,2.5737137E2,4.2275882E2,4.143046E2,7.809213E2,8.7920685E2,7.957029E1,1.7780109E2,3.0075912E2,1.219997E2,1.4741731E2,2.668873E2,7.225583E2,5.8363026E1,2.1506572E2,6.641411E2,4.3713554E1,3.585673E1,1.7530814E2,2.4929419E0,7.084906E1,2.2991006E2,1.2050496E2,1.4947405E0,1.161091E2,3.1308207E1,1.6241362E2,1.0447368E2,2.0298468E2,5.195736E2,3.0224022E1,2.8139004E1,1.24402405E2,9.066332E1,4.5505185E2,2.0908925E2,2.1383856E1,2.2329697E1,2.6802767E1,9.053966E0,1.6755798E2,7.750163E0,3.9687218E1,3.1161846E1,2.1119116E2,1.8718893E1,1.1787887E2,2.6260948E0,8.940498E1,2.670412E1,2.5922537E1,5.385669E0,6.7332306E1,9.5081314E1,2.2394636E0,1.02234215E2],"tree_param":{"num_deleted":"0","num_feature":"23","num_nodes":"59","size_leaf_vector":"1"}},{"base_weights":[-4.042509E-3,1.1715687E-1,-1.0276481E0,3.494756E-1,-3.5700262E-1,-1.1274363E0,1.2811453E0,1.6211922E-1,1.009148E0,-4.8101243E-1,1.4058019E-1,-9.6236444E-1,-1.5067927E0,1.768924E-2,1.4914428E0,3.5725277E-2,5.753322E-1,1.2089043E0,7.2326446E-1,-6.112256E-1,9.578229E-2,-7.867578E-1,2.8766376E-1,-7.3043704E-1,-1.2406496E0,-8.6884886E-2,-5.805665E-1,8.367106E-2,3.2110017E-2,1.0398644E-2,-9.158053E-3,1.7734354E-2,5.16859E-2,6.1055064E-2,7.7541093E-3,5.7793546E-2,1.4525135E-2,-3.7739787E-2,5.3150295E-3,1.239692E-2,-6.2651604E-2,1.6262017E-2,-7.200303E-2,1.9604793E-2,-5.6836236E-2,-4.7588464E-2,6.1224545E-3,-6.5131664E-2,5.2723538E-2,-5.768813E-2,4.7989417E-2],"categories":[],"categories_nodes":[],"categories_segments":[],"categories_sizes":[],"default_left":[0,0,0,0,0,0,0,0,0,0,0,0,0,0,0,0,0,0,0,0,0,0,0,0,0,0,0,0,0,0,0,0,0,0,0,0,0,0,0,0,0,0,0,0,0,0,0,0,0,0,0],"id":4,"left_children":[1,3,5,7,9,11,13,15,17,19,21,23,25,-1,27,29,31,33,35,37,39,41,43,45,47,-1,49,-1,-1,-1,-1,-1,-1,-1,-1,-1,-1,-1,-1,-1,-1,-1,-1,-1,-1,-1,-1,-1,-1,-1,-1],"loss_changes":[3.4153256E2,2.7127762E2,6.8592224E1,2.0408574E2,5.004551E1,1.6078125E1,1.9185123E0,6.726104E1,1.9989624E1,4.8771362E1,2.2371733E1,1.1860687E1,1.6764069E1,0E0,4.5739365E-1,3.7271553E1,3.0145645E1,2.5558777E0,2.8264473E1,5.4602936E1,2.5003527E1,1.680978E1,2.1399883E1,2.0942139E1,1.3961609E1,0E0,1.7074703E1,0E0,0E0,0E0,0E0,0E0,0E0,0E0,0E0,0E0,0E0,0E0,0E0,0E0,0E0,0E0,0E0,0E0,0E0,0E0,0E0,0E0,0E0,0E0,0E0],"parents":[2147483647,0,0,1,1,2,2,3,3,4,4,5,5,6,6,7,7,8,8,9,9,10,10,11,11,12,12,14,14,15,15,16,16,17,17,18,18,19,19,20,20,21,21,22,22,23,23,24,24,26,26],"right_children":[2,4,6,8,10,12,14,16,18,20,22,24,26,-1,28,30,32,34,36,38,40,42,44,46,48,-1,50,-1,-1,-1,-1,-1,-1,-1,-1,-1,-1,-1,-1,-1,-1,-1,-1,-1,-1,-1,-1,-1,-1,-1,-1],"split_conditions":[1E0,1E0,2.23E1,1E0,1E0,8.62E-1,7.83E-1,1E0,1E0,9.9E0,1E1,1E0,8.3E1,1.768924E-2,8.12E-1,1E0,1E0,9.67E-1,2.5E1,1.5335184E5,9.31E-1,2.841138E4,1.15E2,1E0,8.9057675E5,-8.6884886E-2,1.2933174E5,8.367106E-2,3.2110017E-2,1.0398644E-2,-9.158053E-3,1.7734354E-2,5.16859E-2,6.1055064E-2,7.7541093E-3,5.7793546E-2,1.4525135E-2,-3.7739787E-2,5.3150295E-3,1.239692E-2,-6.2651604E-2,1.6262017E-2,-7.200303E-2,1.9604793E-2,-5.6836236E-2,-4.7588464E-2,6.1224545E-3,-6.5131664E-2,5.2723538E-2,-5.768813E-2,4.7989417E-2],"split_indices":[16,18,6,9,9,4,4,17,22,6,2,22,2,0,4,22,15,4,2,0,4,0,2,9,0,0,0,0,0,0,0,0,0,0,0,0,0,0,0,0,0,0,0,0,0,0,0,0,0,0,0],"split_type":[0,0,0,0,0,0,0,0,0,0,0,0,0,0,0,0,0,0,0,0,0,0,0,0,0,0,0,0,0,0,0,0,0,0,0,0,0,0,0,0,0,0,0,0,0,0,0,0,0,0,0],"sum_hessian":[2.7509846E3,2.4605322E3,2.9045227E2,1.6515858E3,8.089465E2,2.789092E2,1.1543039E1,1.2872377E3,3.6434814E2,6.475856E2,1.613609E2,1.968078E2,8.210142E1,2.6295717E0,8.913468E0,9.8655566E2,3.0068204E2,2.1258162E2,1.5176651E2,5.282678E2,1.1931774E2,2.1494228E1,1.3986667E2,1.09321915E2,8.7485886E1,6.501684E1,1.7084581E1,6.541291E0,2.3721771E0,5.521241E2,4.3443155E2,2.0417545E2,9.65066E1,2.0999242E2,2.5891953E0,7.506127E1,7.6705246E1,4.4014673E2,8.812109E1,1.0795573E2,1.1362013E1,8.140426E0,1.3353804E1,1.3098775E2,8.878921E0,8.670515E1,2.2616768E1,8.560637E1,1.8795171E0,1.2634146E1,4.450435E0],"tree_param":{"num_deleted":"0","num_feature":"23","num_nodes":"51","size_leaf_vector":"1"}},{"base_weights":[-3.0977863E-3,1.0922893E-1,-9.5882106E-1,3.3845502E-1,-3.6407915E-1,-1.0346493E0,9.0334105E-1,4.1636142E-1,-2.6579726E-1,-5.192378E-1,1.1652704E-1,-8.269618E-1,-1.4207718E0,-3.3932042E-1,8.33548E-2,5.636328E-1,2.3994903E-1,-1.1993237E0,-1.18172504E-1,-6.8199277E-1,-1.5672882E-1,2.1426576E-1,-9.5593476E-1,-1.000759E0,-2.4364021E-1,-7.9647854E-2,-7.55336E-1,5.8999684E-2,-6.626875E-2,2.6108509E-2,6.0316492E-2,5.0224154E-3,3.1106237E-2,2.2501295E-2,-6.926137E-2,-6.549853E-2,-1.2927381E-3,-3.9297756E-2,-6.132674E-3,-6.7498203E-4,-8.7470494E-2,4.7889645E-3,4.5752395E-2,-8.3855115E-2,1.7758494E-2,-3.1310923E-2,-7.378154E-2,3.8495794E-2,-5.6623317E-2,-5.965041E-2,1.7106874E-2],"categories":[],"categories_nodes":[],"categories_segments":[],"categories_sizes":[],"default_left":[0,0,0,0,0,0,0,0,0,0,0,0,0,0,0,0,0,0,0,0,0,0,0,0,0,0,0,0,0,0,0,0,0,0,0,0,0,0,0,0,0,0,0,0,0,0,0,0,0,0,0],"id":5,"left_children":[1,3,5,7,9,11,13,15,17,19,21,23,25,27,-1,29,31,33,35,37,39,41,43,45,47,-1,49,-1,-1,-1,-1,-1,-1,-1,-1,-1,-1,-1,-1,-1,-1,-1,-1,-1,-1,-1,-1,-1,-1,-1,-1],"loss_changes":[2.9571628E2,2.6755496E2,4.1841797E1,7.831093E1,6.0070976E1,2.1185455E1,1.1830516E1,3.810428E1,2.6087496E1,3.5796753E1,2.0877268E1,1.837986E1,9.811203E0,9.57731E0,0E0,2.0726822E1,3.5733116E1,8.558315E0,1.8169397E1,2.4308014E1,4.328582E1,1.4987977E1,1.6343613E1,2.419165E1,4.0051712E1,0E0,1.0813506E1,0E0,0E0,0E0,0E0,0E0,0E0,0E0,0E0,0E0,0E0,0E0,0E0,0E0,0E0,0E0,0E0,0E0,0E0,0E0,0E0,0E0,0E0,0E0,0E0],"parents":[2147483647,0,0,1,1,2,2,3,3,4,4,5,5,6,6,7,7,8,8,9,9,10,10,11,11,12,12,13,13,15,15,16,16,17,17,18,18,19,19,20,20,21,21,22,22,23,23,24,24,26,26],"right_children":[2,4,6,8,10,12,14,16,18,20,22,24,26,28,-1,30,32,34,36,38,40,42,44,46,48,-1,50,-1,-1,-1,-1,-1,-1,-1,-1,-1,-1,-1,-1,-1,-1,-1,-1,-1,-1,-1,-1,-1,-1,-1,-1],"split_conditions":[1E0,1E0,1.87E1,1E0,1E0,8.47E-1,5E0,1E0,9E0,6.4E0,1E0,1E0,8.3E1,1E0,8.33548E-2,1.74E1,1E0,5.24E-1,1.057602E4,1.5665803E5,9.41E-1,6E0,9.07E-1,1E0,2.354654E4,-7.9647854E-2,1.2489765E5,5.8999684E-2,-6.626875E-2,2.6108509E-2,6.0316492E-2,5.0224154E-3,3.1106237E-2,2.2501295E-2,-6.926137E-2,-6.549853E-2,-1.2927381E-3,-3.9297756E-2,-6.132674E-3,-6.7498203E-4,-8.7470494E-2,4.7889645E-3,4.5752395E-2,-8.3855115E-2,1.7758494E-2,-3.1310923E-2,-7.378154E-2,3.8495794E-2,-5.6623317E-2,-5.965041E-2,1.7106874E-2],"split_indices":[16,18,6,11,20,4,5,22,2,6,11,15,2,5,0,6,17,4,0,0,4,5,4,22,0,0,0,0,0,0,0,0,0,0,0,0,0,0,0,0,0,0,0,0,0,0,0,0,0,0,0],"split_type":[0,0,0,0,0,0,0,0,0,0,0,0,0,0,0,0,0,0,0,0,0,0,0,0,0,0,0,0,0,0,0,0,0,0,0,0,0,0,0,0,0,0,0,0,0,0,0,0,0,0,0],"sum_hessian":[2.7526338E3,2.4639321E3,2.887017E2,1.660181E3,8.037512E2,2.7783258E2,1.0869103E1,1.4708544E3,1.8932666E2,6.0753467E2,1.9621657E2,1.8270241E2,9.513017E1,4.348931E0,6.520172E0,8.0044073E2,6.704136E2,2.4878674E1,1.6444798E2,4.1867957E2,1.8885509E2,1.8056134E2,1.56552305E1,1.4021158E2,4.2490833E1,7.446746E1,2.0662718E1,1.6342281E0,2.7147028E0,7.536337E2,4.680704E1,4.920644E2,1.7834917E2,2.376194E0,2.250248E1,1.0874264E1,1.5357373E2,3.5271637E2,6.59632E1,1.74198E2,1.4657082E1,1.5542E2,2.5141342E1,9.919757E0,5.735473E0,7.968288E1,6.05287E1,1.9914965E1,2.257587E1,1.4709516E1,5.9532013E0],"tree_param":{"num_deleted":"0","num_feature":"23","num_nodes":"51","size_leaf_vector":"1"}},{"base_weights":[2.3988295E-2,-1.5006264E-1,6.56706E-1,-5.1989652E-2,-9.29119E-1,7.553832E-1,-3.8194624E-1,-1.5961494E-1,5.3165996E-1,-9.924298E-1,5.1397675E-1,5.085914E-1,9.549239E-1,1.9476697E-1,-1.0744773E0,-5.307142E-1,6.7555934E-2,1.0149188E-1,6.9225556E-1,-2.910823E-1,-1.1409776E0,-6.670808E-2,1.3654544E0,1.7502646E-1,1.1791025E0,1.1194149E0,7.0005584E-1,8.2146645E-1,-6.6131765E-1,-1.3062462E0,5.4968465E-2,-5.7523828E-2,-2.1040672E-2,1.2215529E-2,-7.595303E-3,1.8120605E-2,-5.3178955E-2,3.7078265E-2,-4.8042245E-2,-3.4663804E-2,5.7408303E-2,-4.7992136E-2,-7.595622E-2,7.7512234E-2,2.8762434E-2,2.8792469E-2,-1.3038543E-2,6.3253455E-2,1.0005158E-3,4.397602E-2,6.446349E-2,1.9320609E-2,4.7679693E-2,-1.7076336E-2,6.291145E-2,6.9239706E-2,-5.355075E-2,-7.897701E-2,-2.5044251E-2],"categories":[],"categories_nodes":[],"categories_segments":[],"categories_sizes":[],"default_left":[0,0,0,0,0,0,0,0,0,0,0,0,0,0,0,0,0,0,0,0,0,0,0,0,0,0,0,0,0,0,0,0,0,0,0,0,0,0,0,0,0,0,0,0,0,0,0,0,0,0,0,0,0,0,0,0,0,0,0],"id":6,"left_children":[1,3,5,7,9,11,13,15,17,19,21,23,25,27,29,31,33,35,37,39,41,-1,43,45,47,49,51,53,55,57,-1,-1,-1,-1,-1,-1,-1,-1,-1,-1,-1,-1,-1,-1,-1,-1,-1,-1,-1,-1,-1,-1,-1,-1,-1,-1,-1,-1,-1],"loss_changes":[3.0677887E2,1.6688412E2,6.1884003E1,1.2204873E2,2.2824005E1,2.6558441E1,2.1299843E1,1.3830095E2,2.0829025E1,2.4079025E1,1.901121E1,5.5184532E1,1.1898956E1,1.645564E1,1.3602293E1,4.194162E1,3.953476E1,2.574165E1,1.8654793E1,2.527922E1,1.176239E1,0E0,2.723484E-1,2.9244026E1,8.155434E0,6.2897034E0,9.279739E0,9.354292E0,1.2455871E1,4.112236E0,0E0,0E0,0E0,0E0,0E0,0E0,0E0,0E0,0E0,0E0,0E0,0E0,0E0,0E0,0E0,0E0,0E0,0E0,0E0,0E0,0E0,0E0,0E0,0E0,0E0,0E0,0E0,0E0,0E0],"parents":[2147483647,0,0,1,1,2,2,3,3,4,4,5,5,6,6,7,7,8,8,9,9,10,10,11,11,12,12,13,13,14,14,15,15,16,16,17,17,18,18,19,19,20,20,22,22,23,23,24,24,25,25,26,26,27,27,28,28,29,29],"right_children":[2,4,6,8,10,12,14,16,18,20,22,24,26,28,30,32,34,36,38,40,42,-1,44,46,48,50,52,54,56,58,-1,-1,-1,-1,-1,-1,-1,-1,-1,-1,-1,-1,-1,-1,-1,-1,-1,-1,-1,-1,-1,-1,-1,-1,-1,-1,-1,-1,-1],"split_conditions":[1E0,1E0,1E0,1E0,1.87E1,1E0,1E0,1E0,5.4E1,6.69E-1,5E0,1E0,1E0,2.8E1,2.08E1,3.1E1,1E0,1E0,1.17E2,1E0,8.77E-1,-6.670808E-2,1E0,3E0,4.4E1,3.5E1,5.232637E4,7E0,1E0,8.86E-1,5.4968465E-2,-5.7523828E-2,-2.1040672E-2,1.2215529E-2,-7.595303E-3,1.8120605E-2,-5.3178955E-2,3.7078265E-2,-4.8042245E-2,-3.4663804E-2,5.7408303E-2,-4.7992136E-2,-7.595622E-2,7.7512234E-2,2.8762434E-2,2.8792469E-2,-1.3038543E-2,6.3253455E-2,1.0005158E-3,4.397602E-2,6.446349E-2,1.9320609E-2,4.7679693E-2,-1.7076336E-2,6.291145E-2,6.9239706E-2,-5.355075E-2,-7.897701E-2,-2.5044251E-2],"split_indices":[9,16,16,17,6,19,22,19,1,4,5,17,22,2,6,1,22,21,1,12,4,0,22,5,3,2,0,3,5,4,0,0,0,0,0,0,0,0,0,0,0,0,0,0,0,0,0,0,0,0,0,0,0,0,0,0,0,0,0],"split_type":[0,0,0,0,0,0,0,0,0,0,0,0,0,0,0,0,0,0,0,0,0,0,0,0,0,0,0,0,0,0,0,0,0,0,0,0,0,0,0,0,0,0,0,0,0,0,0,0,0,0,0,0,0,0,0,0,0,0,0],"sum_hessian":[2.783836E3,2.183854E3,5.9998193E2,1.9406218E3,2.4323213E2,5.4817523E2,5.1806717E1,1.6390979E3,3.0152393E2,2.333088E2,9.923324E0,2.4665782E2,3.015174E2,2.86592E1,2.3147518E1,6.2187915E2,1.0172187E3,8.2411125E1,2.1911281E2,4.1295834E1,1.9201297E2,2.9510884E0,6.972235E0,1.6555753E2,8.1100296E1,1.8118748E2,1.203299E2,1.6569721E1,1.2089479E1,2.1278027E1,1.8694899E0,9.224042E1,5.296388E2,5.633685E2,4.5385016E2,6.789486E1,1.4516268E1,2.1330173E2,5.8110895E0,3.268141E1,8.61442E0,1.3221794E2,5.9795036E1,4.8712626E0,2.1009727E0,8.607188E1,7.948565E1,7.5415504E1,5.6847897E0,7.76693E1,1.0351819E2,5.4917423E1,6.541248E1,4.583368E0,1.1986353E1,1.6198046E0,1.0469675E1,1.5169185E1,6.108843E0],"tree_param":{"num_deleted":"0","num_feature":"23","num_nodes":"59","size_leaf_vector":"1"}},{"base_weights":[-1.7177466E-2,-2.3213135E-1,4.8006082E-1,-1.2884618E-1,-1.0682691E0,5.859489E-1,-7.2755295E-1,7.897913E-2,-5.420247E-1,-1.234093E0,-2.075651E-1,7.9245937E-1,1.2970278E-1,-4.0618968E-1,-7.926518E-2,-1.225112E-2,4.518259E-1,-2.850272E-1,-8.4161E-1,5.116538E-1,-1.293188E0,1.0913435E0,-8.249788E-1,9.60019E-1,5.6443727E-1,-1.2483198E-2,9.60624E-1,-7.829354E-2,-5.0737686E-2,1.365952E-3,-6.289915E-2,-4.510313E-2,2.6869623E-2,5.840497E-2,-1.8100483E-2,-3.4871187E-2,-8.627131E-2,-5.782313E-2,8.159809E-2,-4.3945026E-2,-7.121627E-2,-5.0373703E-2,7.4356034E-2,-6.418749E-2,7.334796E-2,4.4464428E-2,6.836363E-2,-7.493148E-2,2.9609144E-2,1.1964217E-2,-2.3722949E-2,-5.718713E-2,5.3689606E-2,2.48232E-2,-4.146175E-2],"categories":[],"categories_nodes":[],"categories_segments":[],"categories_sizes":[],"default_left":[0,0,0,0,0,0,0,0,0,0,0,0,0,0,0,0,0,0,0,0,0,0,0,0,0,0,0,0,0,0,0,0,0,0,0,0,0,0,0,0,0,0,0,0,0,0,0,0,0,0,0,0,0,0,0],"id":7,"left_children":[1,3,5,7,9,11,13,15,17,19,21,23,25,27,-1,29,31,33,35,37,39,41,43,45,47,49,51,-1,53,-1,-1,-1,-1,-1,-1,-1,-1,-1,-1,-1,-1,-1,-1,-1,-1,-1,-1,-1,-1,-1,-1,-1,-1,-1,-1],"loss_changes":[2.903325E2,1.6364078E2,1.0526341E2,1.4508224E2,2.9483276E1,7.0969055E1,1.7697575E1,3.826156E1,4.3291367E1,1.8664642E1,2.8858177E1,1.9290955E1,2.7922297E1,2.0427502E1,0E0,4.46237E1,2.6101154E1,3.4635796E1,3.2000153E1,1.3904264E1,7.933838E0,1.1185842E1,2.7328094E1,7.361847E0,1.3612099E1,2.3690405E1,9.451527E0,0E0,1.7072807E1,0E0,0E0,0E0,0E0,0E0,0E0,0E0,0E0,0E0,0E0,0E0,0E0,0E0,0E0,0E0,0E0,0E0,0E0,0E0,0E0,0E0,0E0,0E0,0E0,0E0,0E0],"parents":[2147483647,0,0,1,1,2,2,3,3,4,4,5,5,6,6,7,7,8,8,9,9,10,10,11,11,12,12,13,13,15,15,16,16,17,17,18,18,19,19,20,20,21,21,22,22,23,23,24,24,25,25,26,26,28,28],"right_children":[2,4,6,8,10,12,14,16,18,20,22,24,26,28,-1,30,32,34,36,38,40,42,44,46,48,50,52,-1,54,-1,-1,-1,-1,-1,-1,-1,-1,-1,-1,-1,-1,-1,-1,-1,-1,-1,-1,-1,-1,-1,-1,-1,-1,-1,-1],"split_conditions":[9.8E1,1E0,1E0,1E0,9.5E0,1E0,7.828701E4,9.1E0,1E0,5.01E-1,8E0,1E0,1.45E2,1.6E0,-7.926518E-2,1.42E2,2E1,5.01E-1,9.16E-1,1E0,2.354654E4,3E0,1E0,2.2240262E5,5.50187E3,8.41E-1,6.39E-1,-7.829354E-2,3.1E1,1.365952E-3,-6.289915E-2,-4.510313E-2,2.6869623E-2,5.840497E-2,-1.8100483E-2,-3.4871187E-2,-8.627131E-2,-5.782313E-2,8.159809E-2,-4.3945026E-2,-7.121627E-2,-5.0373703E-2,7.4356034E-2,-6.418749E-2,7.334796E-2,4.4464428E-2,6.836363E-2,-7.493148E-2,2.9609144E-2,1.1964217E-2,-2.3722949E-2,-5.718713E-2,5.3689606E-2,2.48232E-2,-4.146175E-2],"split_indices":[1,16,16,18,6,18,0,6,22,4,2,22,1,6,0,2,1,4,4,12,0,5,9,0,0,4,4,0,2,0,0,0,0,0,0,0,0,0,0,0,0,0,0,0,0,0,0,0,0,0,0,0,0,0,0],"split_type":[0,0,0,0,0,0,0,0,0,0,0,0,0,0,0,0,0,0,0,0,0,0,0,0,0,0,0,0,0,0,0,0,0,0,0,0,0,0,0,0,0,0,0,0,0,0,0,0,0,0,0,0,0,0,0],"sum_hessian":[2.7143079E3,1.8954474E3,8.188603E2,1.6880791E3,2.073684E2,7.533211E2,6.553922E1,1.1236842E3,5.643949E2,1.7350667E2,3.3861717E1,5.1808405E2,2.3523703E2,4.8748684E1,1.6790537E1,9.0356256E2,2.2012164E2,3.0484064E2,2.5955423E2,5.430295E0,1.6807637E2,1.0662486E1,2.3199232E1,2.967847E2,2.2129935E2,2.0170633E2,3.35307E1,1.0637612E1,3.811107E1,8.766928E2,2.6869715E1,1.251762E1,2.0760402E2,1.4623961E1,2.9021667E2,2.2468767E2,3.486657E1,2.168769E0,3.2615263E0,4.2262703E1,1.2581367E2,1.4464359E0,9.21605E0,1.9696518E1,3.5027142E0,2.5558003E2,4.120467E1,2.2331967E0,2.1906615E2,1.3086795E2,7.083837E1,1.2464424E0,3.228426E1,2.259291E1,1.5518159E1],"tree_param":{"num_deleted":"0","num_feature":"23","num_nodes":"55","size_leaf_vector":"1"}},{"base_weights":[3.5969573E-3,1.04146436E-1,-8.831007E-1,-1.636205E-1,4.6773902E-1,-1.720765E-1,-9.535841E-1,5.0039914E-2,-5.9888315E-1,6.437405E-1,7.459266E-2,-6.612174E-1,1.3955613E0,-1.2372897E0,-7.271455E-1,-3.6211602E-2,3.5019702E-1,-6.921089E-1,3.9168395E-2,3.686406E-1,7.5893396E-1,2.7976054E-1,-3.3644697E-1,6.0131496E-1,-1.1391989E0,3.0735774E-2,8.418033E-2,-3.2413106E-2,-1.3288953E0,-3.9080012E-1,-1.243443E0,-3.1884006E-4,-6.0020365E-2,1.980572E-3,3.120916E-2,-3.9160043E-2,4.913742E-5,2.6385194E-2,-1.6178114E-2,-6.3481964E-2,2.235555E-2,4.0741213E-2,5.256331E-3,1.8034503E-2,-8.4618635E-2,-3.9161853E-2,6.4438307E-3,-5.5698108E-2,8.645712E-2,-7.573798E-2,5.1525295E-2,5.005281E-2,-6.261673E-2,-7.887184E-2,-4.7250923E-2,-5.0781734E-2,2.4781177E-2,-6.711538E-2,3.632407E-2],"categories":[],"categories_nodes":[],"categories_segments":[],"categories_sizes":[],"default_left":[0,0,0,0,0,0,0,0,0,0,0,0,0,0,0,0,0,0,0,0,0,0,0,0,0,0,0,0,0,0,0,0,0,0,0,0,0,0,0,0,0,0,0,0,0,0,0,0,0,0,0,0,0,0,0,0,0,0,0],"id":8,"left_children":[1,3,5,7,9,11,13,15,17,19,21,23,25,27,29,31,33,35,37,39,41,43,45,47,49,-1,-1,51,53,55,57,-1,-1,-1,-1,-1,-1,-1,-1,-1,-1,-1,-1,-1,-1,-1,-1,-1,-1,-1,-1,-1,-1,-1,-1,-1,-1,-1,-1],"loss_changes":[2.4436043E2,2.3973431E2,1.3825424E1,1.3193466E2,7.220868E1,2.116313E1,1.5401642E1,2.4666225E1,2.781012E1,2.2574982E1,2.7422283E1,1.3235364E1,4.4929123E-1,1.2231201E1,2.4440826E1,2.5716837E1,1.8071388E1,2.5733673E1,1.0890145E1,2.818221E1,1.8455444E1,3.519741E1,2.2626827E1,1.4241127E1,1.4135208E1,0E0,0E0,1.245234E1,8.367371E0,4.9452587E1,1.1913696E1,0E0,0E0,0E0,0E0,0E0,0E0,0E0,0E0,0E0,0E0,0E0,0E0,0E0,0E0,0E0,0E0,0E0,0E0,0E0,0E0,0E0,0E0,0E0,0E0,0E0,0E0,0E0,0E0],"parents":[2147483647,0,0,1,1,2,2,3,3,4,4,5,5,6,6,7,7,8,8,9,9,10,10,11,11,12,12,13,13,14,14,15,15,16,16,17,17,18,18,19,19,20,20,21,21,22,22,23,23,24,24,27,27,28,28,29,29,30,30],"right_children":[2,4,6,8,10,12,14,16,18,20,22,24,26,28,30,32,34,36,38,40,42,44,46,48,50,-1,-1,52,54,56,58,-1,-1,-1,-1,-1,-1,-1,-1,-1,-1,-1,-1,-1,-1,-1,-1,-1,-1,-1,-1,-1,-1,-1,-1,-1,-1,-1,-1],"split_conditions":[1E0,8.5E1,6.1E-1,1E0,1E0,1E0,6.9E1,1E0,1.9170288E5,9.8E1,8.46E-1,1.79557E4,5.512219E4,1E0,8.38E-1,3.627049E5,5.9E1,4.8E1,4.5E1,5.85E-1,1E0,1.25E2,1.12E2,1.712458E4,1.9170288E5,3.0735774E-2,8.418033E-2,6.565294E4,8.52E-1,8.01E-1,9.83E-1,-3.1884006E-4,-6.0020365E-2,1.980572E-3,3.120916E-2,-3.9160043E-2,4.913742E-5,2.6385194E-2,-1.6178114E-2,-6.3481964E-2,2.235555E-2,4.0741213E-2,5.256331E-3,1.8034503E-2,-8.4618635E-2,-3.9161853E-2,6.4438307E-3,-5.5698108E-2,8.645712E-2,-7.573798E-2,5.1525295E-2,5.005281E-2,-6.261673E-2,-7.887184E-2,-4.7250923E-2,-5.0781734E-2,2.4781177E-2,-6.711538E-2,3.632407E-2],"split_indices":[16,1,4,18,18,12,1,17,0,1,4,0,0,5,4,0,1,3,1,4,7,2,1,0,0,0,0,0,4,4,4,0,0,0,0,0,0,0,0,0,0,0,0,0,0,0,0,0,0,0,0,0,0,0,0,0,0,0,0],"split_type":[0,0,0,0,0,0,0,0,0,0,0,0,0,0,0,0,0,0,0,0,0,0,0,0,0,0,0,0,0,0,0,0,0,0,0,0,0,0,0,0,0,0,0,0,0,0,0,0,0,0,0,0,0,0,0,0,0,0,0],"sum_hessian":[2.738757E3,2.4606118E3,2.781452E2,1.4173544E3,1.0432574E3,2.5396025E1,2.5274916E2,9.512786E2,4.6607578E2,7.2020355E2,3.2305392E2,1.979707E1,5.5989566E0,1.1020673E2,1.4254243E2,7.396237E2,2.116549E2,4.0658487E2,5.9490902E1,2.1380478E2,5.0639877E2,2.1570534E2,1.07348595E2,5.3658285E0,1.443124E1,2.3533862E0,3.2455702E0,7.882546E0,1.0232419E2,8.737703E1,5.5165405E1,7.2212335E2,1.7500353E1,9.973817E1,1.1191674E2,3.5924045E2,4.7344406E1,2.5155708E1,3.4335194E1,9.078884E0,2.0472589E2,4.6629184E2,4.0106915E1,2.0798737E2,7.7179737E0,5.4416378E1,5.2932217E1,2.13344E0,3.2323885E0,1.2559191E1,1.8720495E0,4.3645124E0,3.5180333E0,6.0223328E1,4.210086E1,5.116522E1,3.6211807E1,5.28325E1,2.3329048E0],"tree_param":{"num_deleted":"0","num_feature":"23","num_nodes":"59","size_leaf_vector":"1"}},{"base_weights":[1.5693154E-2,1.0949451E-1,-8.2654303E-1,1.5120195E-2,6.2233573E-1,-5.381486E-1,-1.1620333E0,-3.0997953E-1,2.149492E-1,6.7354524E-1,-7.169932E-2,-8.8177264E-1,-4.9292967E-2,-1.2754024E0,-7.785346E-1,-8.122552E-2,-5.664152E-1,2.913035E-1,-3.485072E-1,7.155191E-1,8.6667374E-2,3.1549567E-1,-8.337799E-2,-5.088724E-1,-1.268732E0,1.0247094E-1,-6.793215E-2,-1.3812137E0,-5.1157165E-1,-3.4630746E-1,-7.361343E-2,4.749513E-2,-6.448168E-3,-2.465311E-2,-7.162528E-2,1.8314114E-2,-2.0419229E-2,-3.062115E-2,9.83883E-3,3.8666762E-2,1.2654075E-2,1.744557E-2,-7.483616E-2,7.171208E-2,-1.3717477E-2,2.3553043E-3,-7.4256234E-2,-7.756349E-2,-2.3835054E-2,-3.4671898E-3,6.779256E-2,-7.235355E-2,-3.627191E-2,1.6181132E-2,-6.6136576E-2,-3.813077E-2,4.4874262E-2],"categories":[],"categories_nodes":[],"categories_segments":[],"categories_sizes":[],"default_left":[0,0,0,0,0,0,0,0,0,0,0,0,0,0,0,0,0,0,0,0,0,0,0,0,0,0,0,0,0,0,0,0,0,0,0,0,0,0,0,0,0,0,0,0,0,0,0,0,0,0,0,0,0,0,0,0,0],"id":9,"left_children":[1,3,5,7,9,11,13,15,17,19,21,23,25,27,29,31,33,35,37,39,41,43,-1,45,47,49,-1,51,53,55,-1,-1,-1,-1,-1,-1,-1,-1,-1,-1,-1,-1,-1,-1,-1,-1,-1,-1,-1,-1,-1,-1,-1,-1,-1,-1,-1],"loss_changes":[2.170863E2,1.1964835E2,2.6017197E1,1.3578307E2,1.3704147E1,2.5143589E1,4.5036926E0,4.662919E1,5.5790016E1,8.7548065E0,1.739867E1,1.2050919E1,1.264806E1,7.0533752E0,8.909443E0,2.0880487E1,2.311599E1,5.998121E1,2.2416145E1,8.731354E0,1.0914648E1,1.5448985E1,0E0,2.5297138E1,8.773499E0,1.24423485E1,0E0,2.5668793E0,9.418444E0,1.13833E1,0E0,0E0,0E0,0E0,0E0,0E0,0E0,0E0,0E0,0E0,0E0,0E0,0E0,0E0,0E0,0E0,0E0,0E0,0E0,0E0,0E0,0E0,0E0,0E0,0E0,0E0,0E0],"parents":[2147483647,0,0,1,1,2,2,3,3,4,4,5,5,6,6,7,7,8,8,9,9,10,10,11,11,12,12,13,13,14,14,15,15,16,16,17,17,18,18,19,19,20,20,21,21,23,23,24,24,25,25,27,27,28,28,29,29],"right_children":[2,4,6,8,10,12,14,16,18,20,22,24,26,28,30,32,34,36,38,40,42,44,-1,46,48,50,-1,52,54,56,-1,-1,-1,-1,-1,-1,-1,-1,-1,-1,-1,-1,-1,-1,-1,-1,-1,-1,-1,-1,-1,-1,-1,-1,-1,-1,-1],"split_conditions":[1E0,1E0,1E0,1E0,1E0,4E0,1E0,1E0,1E0,1E0,1E0,1.4E1,4.2E1,4.8E1,1.6E1,5.01E-1,1E0,1E0,3.5E1,1E0,5E0,6.66E-1,-8.337799E-2,8.15E-1,4.4E1,7.4E1,-6.793215E-2,1E0,3E0,3E1,-7.361343E-2,4.749513E-2,-6.448168E-3,-2.465311E-2,-7.162528E-2,1.8314114E-2,-2.0419229E-2,-3.062115E-2,9.83883E-3,3.8666762E-2,1.2654075E-2,1.744557E-2,-7.483616E-2,7.171208E-2,-1.3717477E-2,2.3553043E-3,-7.4256234E-2,-7.756349E-2,-2.3835054E-2,-3.4671898E-3,6.779256E-2,-7.235355E-2,-3.627191E-2,1.6181132E-2,-6.6136576E-2,-3.813077E-2,4.4874262E-2],"split_indices":[16,17,22,19,14,5,15,22,11,13,21,3,3,3,3,4,14,13,3,11,5,4,0,4,3,2,0,10,5,2,0,0,0,0,0,0,0,0,0,0,0,0,0,0,0,0,0,0,0,0,0,0,0,0,0,0,0],"split_type":[0,0,0,0,0,0,0,0,0,0,0,0,0,0,0,0,0,0,0,0,0,0,0,0,0,0,0,0,0,0,0,0,0,0,0,0,0,0,0,0,0,0,0,0,0,0,0,0,0,0,0,0,0,0,0,0,0],"sum_hessian":[2.745682E3,2.471317E3,2.74365E2,2.0880908E3,3.832261E2,1.4893846E2,1.2542653E2,7.946811E2,1.2934097E3,3.5692023E2,2.6305891E1,8.6988884E1,6.1949566E1,9.501322E1,3.0413307E1,4.207061E2,3.7397504E2,1.139481E3,1.5392868E2,3.328924E2,2.4027834E1,2.1815273E1,4.490618E0,4.5478127E1,4.1510757E1,5.634095E1,5.6086183E0,8.274282E1,1.2270397E1,1.9662123E1,1.0751184E1,1.7779251E1,4.0292682E2,3.462213E2,2.7753721E1,1.0296228E3,1.09858185E2,1.0364275E2,5.0285923E1,2.9530023E2,3.7592163E1,2.1282612E1,2.745222E0,7.0369315E0,1.4778342E1,2.9582537E1,1.5895591E1,2.988973E1,1.1621028E1,5.037954E1,5.9614086E0,7.409506E1,8.647762E0,6.341765E0,5.928632E0,1.5021247E1,4.6408763E0],"tree_param":{"num_deleted":"0","num_feature":"23","num_nodes":"57","size_leaf_vector":"1"}},{"base_weights":[1.1997999E-2,-1.4668165E-1,5.8902186E-1,-5.5543553E-2,-9.378534E-1,6.7368364E-1,-3.4706962E-1,1.3338262E-1,-2.7965847E-1,-7.3941785E-1,-1.4041142E0,4.6208334E-1,8.485859E-1,-1.2040418E0,1.605374E-1,-3.0980435E-1,2.1250737E-1,-3.4068912E-1,3.888763E-1,-9.167246E-1,-3.0172485E-1,-7.4449964E-2,2.6118094E-1,1.7920619E-1,1.0291625E0,9.7549856E-1,6.692984E-1,-7.538317E-2,2.4221433E-2,9.003686E-1,-4.4010517E-1,-3.619867E-2,1.1099934E-3,1.4321364E-2,-9.483851E-3,-2.1262318E-2,6.4530172E-3,3.1473186E-2,-4.4348422E-2,-5.0427373E-2,4.1349545E-2,2.3780234E-2,-5.2466046E-2,-4.0987473E-2,4.879234E-2,2.588584E-2,-9.145969E-3,5.558027E-2,-2.6729291E-2,-6.2082287E-2,4.9953625E-2,4.1490376E-2,1.8700628E-2,5.907355E-2,-4.965305E-2,2.4859075E-2,-6.901562E-2],"categories":[],"categories_nodes":[],"categories_segments":[],"categories_sizes":[],"default_left":[0,0,0,0,0,0,0,0,0,0,0,0,0,0,0,0,0,0,0,0,0,0,0,0,0,0,0,0,0,0,0,0,0,0,0,0,0,0,0,0,0,0,0,0,0,0,0,0,0,0,0,0,0,0,0,0,0],"id":10,"left_children":[1,3,5,7,9,11,13,15,17,19,21,23,25,27,29,31,33,35,37,39,41,-1,43,45,47,49,51,-1,-1,53,55,-1,-1,-1,-1,-1,-1,-1,-1,-1,-1,-1,-1,-1,-1,-1,-1,-1,-1,-1,-1,-1,-1,-1,-1,-1,-1],"loss_changes":[2.4953745E2,1.5408058E2,4.6818375E1,8.124126E1,1.9385147E1,1.9570587E1,2.168826E1,3.658104E1,3.5937622E1,1.1903877E1,9.546967E0,3.9323196E1,6.0392303E0,1.0213844E1,1.4578192E1,2.1762943E1,2.6339432E1,3.2017143E1,2.32351E1,1.8640572E1,2.7661438E1,0E0,3.8845124E0,2.0385841E1,1.1134277E1,1.0127029E1,5.61829E0,0E0,0E0,8.959311E0,1.6800512E1,0E0,0E0,0E0,0E0,0E0,0E0,0E0,0E0,0E0,0E0,0E0,0E0,0E0,0E0,0E0,0E0,0E0,0E0,0E0,0E0,0E0,0E0,0E0,0E0,0E0,0E0],"parents":[2147483647,0,0,1,1,2,2,3,3,4,4,5,5,6,6,7,7,8,8,9,9,10,10,11,11,12,12,13,13,14,14,15,15,16,16,17,17,18,18,19,19,20,20,22,22,23,23,24,24,25,25,26,26,29,29,30,30],"right_children":[2,4,6,8,10,12,14,16,18,20,22,24,26,28,30,32,34,36,38,40,42,-1,44,46,48,50,52,-1,-1,54,56,-1,-1,-1,-1,-1,-1,-1,-1,-1,-1,-1,-1,-1,-1,-1,-1,-1,-1,-1,-1,-1,-1,-1,-1,-1,-1],"split_conditions":[1E0,1E0,1E0,1E0,8.62E-1,1E0,7.9E-1,3.4E1,1.07E2,1E0,8E0,1E0,1E0,2.4989431E5,8.38E-1,1E0,1E0,1E0,9.16E-1,8.52E-1,2.517237E4,-7.4449964E-2,9.71E-1,3E0,4.7E1,8.5E1,1.21E2,-7.538317E-2,2.4221433E-2,6.3E1,4.376582E4,-3.619867E-2,1.1099934E-3,1.4321364E-2,-9.483851E-3,-2.1262318E-2,6.4530172E-3,3.1473186E-2,-4.4348422E-2,-5.0427373E-2,4.1349545E-2,2.3780234E-2,-5.2466046E-2,-4.0987473E-2,4.879234E-2,2.588584E-2,-9.145969E-3,5.558027E-2,-2.6729291E-2,-6.2082287E-2,4.9953625E-2,4.1490376E-2,1.8700628E-2,5.907355E-2,-4.965305E-2,2.4859075E-2,-6.901562E-2],"split_indices":[9,16,16,22,4,19,4,1,1,15,5,17,22,0,4,19,11,17,4,4,0,0,4,5,3,1,1,0,0,2,0,0,0,0,0,0,0,0,0,0,0,0,0,0,0,0,0,0,0,0,0,0,0,0,0,0,0],"split_type":[0,0,0,0,0,0,0,0,0,0,0,0,0,0,0,0,0,0,0,0,0,0,0,0,0,0,0,0,0,0,0,0,0,0,0,0,0,0,0,0,0,0,0,0,0,0,0,0,0,0,0,0,0,0,0,0,0],"sum_hessian":[2.7233965E3,2.136588E3,5.868088E2,1.9168489E3,2.1973895E2,5.383956E2,4.841314E1,1.0402964E3,8.765525E2,1.5595291E2,6.3786034E1,2.4528578E2,2.9310983E2,1.749874E1,3.09144E1,1.5715234E2,8.8314404E2,8.036752E2,7.287727E1,1.1021218E2,4.5740734E1,6.0793095E1,2.9929407E0,1.6452934E2,8.075645E1,1.6902252E2,1.24087326E2,1.4922459E1,2.57628E0,1.3628599E1,1.72858E1,6.939846E1,8.775388E1,7.4627026E2,1.3687376E2,6.8115814E2,1.22517075E2,6.1741283E1,1.1135988E1,1.05099335E2,5.112846E0,2.2602798E1,2.3137936E1,1.1326984E0,1.8602424E0,8.481532E1,7.971401E1,7.698675E1,3.7697003E0,1.2346264E0,1.6778789E2,7.9216995E1,4.487033E1,1.2194234E1,1.4343653E0,8.892312E0,8.39349E0],"tree_param":{"num_deleted":"0","num_feature":"23","num_nodes":"57","size_leaf_vector":"1"}},{"base_weights":[1.309377E-2,-2.732759E-1,3.0257446E-1,-1.3185968E-1,-6.158413E-1,1.23841345E-1,5.56716E-1,-2.3478875E-1,2.642943E-1,-7.5374305E-1,-7.0870537E-3,-1.0667912E-1,4.0575987E-1,7.43607E-1,3.1954187E-1,3.5244297E-2,-4.0111485E-1,-1.1042498E0,4.1503653E-1,-8.55232E-1,-7.927675E-2,1.1013645E0,-2.175681E-1,-2.2587587E-1,5.8318967E-1,3.2227978E-1,1.2846568E0,8.490946E-1,4.813019E-1,1.4965868E-1,1.0378182E0,-1.2894744E-2,1.4622316E-2,-2.4401136E-2,7.295899E-3,-8.7730385E-2,4.7483284E-2,-3.4321588E-2,3.028586E-2,-7.480713E-2,-3.5162702E-2,8.513091E-3,-7.43432E-2,-5.237033E-2,7.501512E-2,-6.376035E-2,7.817336E-3,-5.0960373E-2,-8.51051E-3,-4.3057345E-2,3.600412E-2,-2.7169032E-2,1.9279893E-2,-1.6900058E-3,7.168711E-2,-7.978364E-3,4.3175142E-2,2.9164031E-2,-7.498383E-2,-1.5736356E-2,1.5200362E-2,5.835442E-2,-7.5299025E-2],"categories":[],"categories_nodes":[],"categories_segments":[],"categories_sizes":[],"default_left":[0,0,0,0,0,0,0,0,0,0,0,0,0,0,0,0,0,0,0,0,0,0,0,0,0,0,0,0,0,0,0,0,0,0,0,0,0,0,0,0,0,0,0,0,0,0,0,0,0,0,0,0,0,0,0,0,0,0,0,0,0,0,0],"id":11,"left_children":[1,3,5,7,9,11,13,15,17,19,21,23,25,27,29,31,33,35,37,39,41,43,45,47,49,51,53,55,57,59,61,-1,-1,-1,-1,-1,-1,-1,-1,-1,-1,-1,-1,-1,-1,-1,-1,-1,-1,-1,-1,-1,-1,-1,-1,-1,-1,-1,-1,-1,-1,-1,-1],"loss_changes":[2.2368198E2,6.563081E1,6.0881317E1,3.926275E1,3.3244186E1,5.1323498E1,2.4307724E1,3.4311565E1,4.145794E1,2.203572E1,1.7541962E1,3.5893627E1,2.5645096E1,8.139984E0,2.9837706E1,2.2090395E1,2.2541252E1,2.8371237E1,3.8168106E1,2.6276947E1,1.5474948E1,1.1858041E1,2.5177473E1,1.62346E1,1.3343609E1,1.8061668E1,6.038521E0,3.3209686E0,1.9242155E1,1.4427645E1,1.7162537E1,0E0,0E0,0E0,0E0,0E0,0E0,0E0,0E0,0E0,0E0,0E0,0E0,0E0,0E0,0E0,0E0,0E0,0E0,0E0,0E0,0E0,0E0,0E0,0E0,0E0,0E0,0E0,0E0,0E0,0E0,0E0,0E0],"parents":[2147483647,0,0,1,1,2,2,3,3,4,4,5,5,6,6,7,7,8,8,9,9,10,10,11,11,12,12,13,13,14,14,15,15,16,16,17,17,18,18,19,19,20,20,21,21,22,22,23,23,24,24,25,25,26,26,27,27,28,28,29,29,30,30],"right_children":[2,4,6,8,10,12,14,16,18,20,22,24,26,28,30,32,34,36,38,40,42,44,46,48,50,52,54,56,58,60,62,-1,-1,-1,-1,-1,-1,-1,-1,-1,-1,-1,-1,-1,-1,-1,-1,-1,-1,-1,-1,-1,-1,-1,-1,-1,-1,-1,-1,-1,-1,-1,-1],"split_conditions":[7.8E1,1E0,1E0,8.1E1,9.9E0,4.6E0,1E0,1.6E1,1.79557E4,1.7362884E5,1.03E1,1E0,2.08E1,1E0,1E0,5.1E1,1E0,1E0,1.1E0,2.8E1,1E0,1.6E1,1.27E1,3E0,1.763923E4,1.110066E4,4E0,5.34E-1,1.17E2,3.44457E4,4.4E1,-1.2894744E-2,1.4622316E-2,-2.4401136E-2,7.295899E-3,-8.7730385E-2,4.7483284E-2,-3.4321588E-2,3.028586E-2,-7.480713E-2,-3.5162702E-2,8.513091E-3,-7.43432E-2,-5.237033E-2,7.501512E-2,-6.376035E-2,7.817336E-3,-5.0960373E-2,-8.51051E-3,-4.3057345E-2,3.600412E-2,-2.7169032E-2,1.9279893E-2,-1.6900058E-3,7.168711E-2,-7.978364E-3,4.3175142E-2,2.9164031E-2,-7.498383E-2,-1.5736356E-2,1.5200362E-2,5.835442E-2,-7.5299025E-2],"split_indices":[1,18,9,2,6,6,22,2,0,0,6,17,6,18,17,1,12,8,6,1,11,2,6,3,0,0,3,4,2,0,3,0,0,0,0,0,0,0,0,0,0,0,0,0,0,0,0,0,0,0,0,0,0,0,0,0,0,0,0,0,0,0,0],"split_type":[0,0,0,0,0,0,0,0,0,0,0,0,0,0,0,0,0,0,0,0,0,0,0,0,0,0,0,0,0,0,0,0,0,0,0,0,0,0,0,0,0,0,0,0,0,0,0,0,0,0,0,0,0,0,0,0,0,0,0,0,0,0,0],"sum_hessian":[2.6962659E3,1.3554442E3,1.3408215E3,9.603726E2,3.9507166E2,7.8807214E2,5.527494E2,7.626322E2,1.9774043E2,3.219107E2,7.316093E1,4.339002E2,3.5417194E2,3.0795142E2,2.4479797E2,2.9099133E2,4.7164087E2,1.8992027E1,1.7874841E2,2.795743E2,4.2336395E1,1.0999885E1,6.2161045E1,3.705487E2,6.3351482E1,3.246979E2,2.9474037E1,2.1803157E2,8.991987E1,1.9895134E2,4.584664E1,1.3599358E2,1.5499776E2,4.07076E2,6.456486E1,1.4535264E1,4.456763E0,2.5993994E1,1.5275441E2,5.189251E1,2.2768181E2,3.6707832E1,5.6285634E0,1.4679079E0,9.531977E0,1.5606571E1,4.6554474E1,2.3160608E1,3.4738812E2,5.0265317E0,5.832495E1,2.1614265E1,3.0308365E2,3.0727813E0,2.6401257E1,2.9287035E0,2.1510286E2,8.618853E1,3.731337E0,4.9370895E1,1.4958044E2,4.4144516E1,1.7021236E0],"tree_param":{"num_deleted":"0","num_feature":"23","num_nodes":"63","size_leaf_vector":"1"}},{"base_weights":[9.375913E-3,9.9646896E-2,-8.2150185E-1,-1.5885141E-1,3.937282E-1,-8.8096863E-1,9.5336735E-1,1.1365324E-2,-4.9869874E-1,5.6103736E-1,2.3381354E-2,-9.5238996E-1,-1.1327247E-1,-4.5004696E-2,6.744526E-2,-6.59357E-2,4.7494906E-1,9.7602457E-1,-5.412032E-1,4.4786662E-1,8.7904006E-1,-6.9133796E-2,9.8720723E-1,-4.8953053E-1,-1.0854939E0,1.4320806E0,-9.779712E-1,-2.336067E-2,2.7928082E-3,-3.7824418E-3,3.648269E-2,-5.5832304E-2,7.3097214E-2,-3.5931777E-2,-7.904175E-3,9.377212E-3,3.1489503E-2,5.1478203E-2,3.694659E-2,-1.0599608E-2,1.6631557E-2,-5.680139E-2,5.56808E-2,-7.06326E-2,-1.8202482E-3,-6.505036E-2,-3.328081E-2,1.8935202E-2,9.3655065E-2,-6.8837054E-2,3.4258027E-2],"categories":[],"categories_nodes":[],"categories_segments":[],"categories_sizes":[],"default_left":[0,0,0,0,0,0,0,0,0,0,0,0,0,0,0,0,0,0,0,0,0,0,0,0,0,0,0,0,0,0,0,0,0,0,0,0,0,0,0,0,0,0,0,0,0,0,0,0,0,0,0],"id":12,"left_children":[1,3,5,7,9,11,13,15,17,19,21,23,25,-1,-1,27,29,31,33,35,37,39,41,43,45,47,49,-1,-1,-1,-1,-1,-1,-1,-1,-1,-1,-1,-1,-1,-1,-1,-1,-1,-1,-1,-1,-1,-1,-1,-1],"loss_changes":[2.0224849E2,1.8495361E2,2.8730698E1,7.492407E1,7.0503555E1,1.393988E1,7.846636E0,3.0988878E1,2.7620644E1,2.7816635E1,3.173969E1,1.3901276E1,3.205704E1,0E0,0E0,3.6254967E1,1.7386612E1,1.4307849E1,2.8488213E1,2.7357727E1,3.5563812E0,1.8724817E1,9.631775E0,2.2595875E1,1.5523605E1,3.3031025E0,1.1093568E1,0E0,0E0,0E0,0E0,0E0,0E0,0E0,0E0,0E0,0E0,0E0,0E0,0E0,0E0,0E0,0E0,0E0,0E0,0E0,0E0,0E0,0E0,0E0,0E0],"parents":[2147483647,0,0,1,1,2,2,3,3,4,4,5,5,6,6,7,7,8,8,9,9,10,10,11,11,12,12,15,15,16,16,17,17,18,18,19,19,20,20,21,21,22,22,23,23,24,24,25,25,26,26],"right_children":[2,4,6,8,10,12,14,16,18,20,22,24,26,-1,-1,28,30,32,34,36,38,40,42,44,46,48,50,-1,-1,-1,-1,-1,-1,-1,-1,-1,-1,-1,-1,-1,-1,-1,-1,-1,-1,-1,-1,-1,-1,-1,-1],"split_conditions":[1E0,8.1E1,2.43E1,1E0,1E0,1E0,3E0,1E0,4.85E-1,1E0,1.46E2,2E0,6.59E-1,-4.5004696E-2,6.744526E-2,3.7E1,1.2E1,5.1E1,6.8E0,1.02E2,4.298984E4,1E0,6.5E-1,6.8E1,5.9E0,6.416369E4,4.7E1,-2.336067E-2,2.7928082E-3,-3.7824418E-3,3.648269E-2,-5.5832304E-2,7.3097214E-2,-3.5931777E-2,-7.904175E-3,9.377212E-3,3.1489503E-2,5.1478203E-2,3.694659E-2,-1.0599608E-2,1.6631557E-2,-5.680139E-2,5.56808E-2,-7.06326E-2,-1.8202482E-3,-6.505036E-2,-3.328081E-2,1.8935202E-2,9.3655065E-2,-6.8837054E-2,3.4258027E-2],"split_indices":[16,1,6,18,18,12,5,12,4,20,1,5,4,0,0,1,3,1,6,1,0,20,4,1,6,0,3,0,0,0,0,0,0,0,0,0,0,0,0,0,0,0,0,0,0,0,0,0,0,0,0],"split_type":[0,0,0,0,0,0,0,0,0,0,0,0,0,0,0,0,0,0,0,0,0,0,0,0,0,0,0,0,0,0,0,0,0,0,0,0,0,0,0,0,0,0,0,0,0,0,0,0,0,0,0],"sum_hessian":[2.694406E3,2.4311526E3,2.632533E2,1.2940973E3,1.1370554E3,2.5520628E2,8.047015E0,8.628798E2,4.312175E2,7.8286896E2,3.5418646E2,2.3326434E2,2.194194E1,1.1909045E0,6.8561106E0,7.402958E2,1.22584045E2,1.146509E1,4.1975238E2,5.7916437E2,2.0370456E2,3.2401352E2,3.0172947E1,5.31426E1,1.8012175E2,7.637091E0,1.4304849E1,1.7171059E2,5.685852E2,3.8993786E1,8.359026E1,1.9159253E0,9.549164E0,2.8628906E2,1.3346335E2,2.3908206E2,3.4008234E2,9.5141685E1,1.08562874E2,2.3937103E2,8.464247E1,1.2466441E0,2.8926302E1,1.6799852E1,3.634275E1,1.176409E2,6.2480846E1,2.80236E0,4.834731E0,1.16772E1,2.6276476E0],"tree_param":{"num_deleted":"0","num_feature":"23","num_nodes":"51","size_leaf_vector":"1"}},{"base_weights":[2.7821576E-2,-1.1044909E-1,5.3771406E-1,-2.786891E-2,-8.330172E-1,6.122908E-1,-3.0758363E-1,1.5122688E-1,-4.1656482E-1,-9.2212987E-1,7.884931E-1,8.05715E-1,1.9378453E-1,-8.137524E-1,3.101938E-1,1.1151005E-1,9.4498205E-1,-6.2618077E-1,-2.4402793E-2,-8.047475E-1,-7.284674E-2,-1.7869551E-1,6.8782456E-2,7.1167415E-1,1.0539759E0,-2.567711E-2,7.499169E-1,5.614949E-1,-7.237833E-2,9.006345E-1,-7.2064656E-1,2.0869799E-2,8.9614105E-4,-1.8381206E-2,6.249937E-2,-6.573238E-2,-2.6804646E-2,-1.0446998E-2,3.7495844E-2,-5.260091E-2,-2.2195696E-3,6.568112E-2,-5.8458623E-2,3.3127747E-2,5.6723244E-2,5.3821933E-2,2.0194588E-2,2.5044963E-2,-3.5411414E-2,-6.350178E-2,4.264559E-2,-5.5729624E-2,6.808444E-2,-4.3838106E-2,5.6054827E-2,-6.771487E-2,4.226707E-2],"categories":[],"categories_nodes":[],"categories_segments":[],"categories_sizes":[],"default_left":[0,0,0,0,0,0,0,0,0,0,0,0,0,0,0,0,0,0,0,0,0,0,0,0,0,0,0,0,0,0,0,0,0,0,0,0,0,0,0,0,0,0,0,0,0,0,0,0,0,0,0,0,0,0,0,0,0],"id":13,"left_children":[1,3,5,7,9,11,13,15,17,19,21,23,25,27,29,31,33,35,37,39,-1,41,-1,43,45,47,49,51,-1,53,55,-1,-1,-1,-1,-1,-1,-1,-1,-1,-1,-1,-1,-1,-1,-1,-1,-1,-1,-1,-1,-1,-1,-1,-1,-1,-1],"loss_changes":[1.9238445E2,1.2807526E2,3.6883865E1,1.3425317E2,3.2538315E1,4.3171555E1,1.5217712E1,4.1519096E1,4.998838E1,1.1956863E1,7.064795E0,7.788803E0,2.0828913E1,2.3982456E1,1.4207943E1,3.6021404E1,2.5595081E1,2.387886E1,3.058176E1,3.2617935E1,0E0,9.548524E0,0E0,4.821045E0,1.0021515E0,4.464312E1,1.1127239E1,1.3731104E1,0E0,6.707301E0,9.74639E0,0E0,0E0,0E0,0E0,0E0,0E0,0E0,0E0,0E0,0E0,0E0,0E0,0E0,0E0,0E0,0E0,0E0,0E0,0E0,0E0,0E0,0E0,0E0,0E0,0E0,0E0],"parents":[2147483647,0,0,1,1,2,2,3,3,4,4,5,5,6,6,7,7,8,8,9,9,10,10,11,11,12,12,13,13,14,14,15,15,16,16,17,17,18,18,19,19,21,21,23,23,24,24,25,25,26,26,27,27,29,29,30,30],"right_children":[2,4,6,8,10,12,14,16,18,20,22,24,26,28,30,32,34,36,38,40,-1,42,-1,44,46,48,50,52,-1,54,56,-1,-1,-1,-1,-1,-1,-1,-1,-1,-1,-1,-1,-1,-1,-1,-1,-1,-1,-1,-1,-1,-1,-1,-1,-1,-1],"split_conditions":[1E0,1E0,1E0,1E0,1.87E1,1E0,5.9E0,1.74E1,8E1,5E0,5E0,1E0,1E0,2E0,3.1E1,1E0,5.3E1,8E-1,1.06E1,4E0,-7.284674E-2,1E0,6.8782456E-2,1.18E2,1.23E1,3E0,9.3E1,1E0,-7.237833E-2,9.5E1,6E0,2.0869799E-2,8.9614105E-4,-1.8381206E-2,6.249937E-2,-6.573238E-2,-2.6804646E-2,-1.0446998E-2,3.7495844E-2,-5.260091E-2,-2.2195696E-3,6.568112E-2,-5.8458623E-2,3.3127747E-2,5.6723244E-2,5.3821933E-2,2.0194588E-2,2.5044963E-2,-3.5411414E-2,-6.350178E-2,4.264559E-2,-5.5729624E-2,6.808444E-2,-4.3838106E-2,5.6054827E-2,-6.771487E-2,4.226707E-2],"split_indices":[9,16,16,18,6,18,6,6,1,5,5,20,20,5,2,19,1,6,6,5,0,5,0,2,6,5,1,21,0,1,5,0,0,0,0,0,0,0,0,0,0,0,0,0,0,0,0,0,0,0,0,0,0,0,0,0,0],"split_type":[0,0,0,0,0,0,0,0,0,0,0,0,0,0,0,0,0,0,0,0,0,0,0,0,0,0,0,0,0,0,0,0,0,0,0,0,0,0,0,0,0,0,0,0,0,0,0,0,0,0,0,0,0,0,0,0,0],"sum_hessian":[2.726892E3,2.1457888E3,5.8110333E2,1.9266377E3,2.1915118E2,5.34245E2,4.6858353E1,1.319346E3,6.0729175E2,2.0814363E2,1.1007547E1,3.647435E2,1.6950148E2,2.5581345E1,2.1277006E1,1.2575623E3,6.1783665E1,3.953663E2,2.1192543E2,1.7273535E2,3.540828E1,4.4209037E0,6.586643E0,2.673415E2,9.740199E1,1.2222337E2,4.727811E1,8.10634E0,1.7475004E1,1.3608623E1,7.6683836E0,2.938069E2,9.637554E2,1.1610777E1,5.017289E1,4.417563E1,3.5119067E2,1.7172888E2,4.0196556E1,1.3005681E2,4.267854E1,1.6335047E0,2.7873988E0,2.4181488E2,2.552662E1,9.351488E1,3.887121E0,6.9145195E1,5.307818E1,1.7439722E0,4.5534138E1,2.4925466E0,5.6137943E0,1.1731982E0,1.2435424E1,5.555588E0,2.1127958E0],"tree_param":{"num_deleted":"0","num_feature":"23","num_nodes":"57","size_leaf_vector":"1"}},{"base_weights":[-1.60575E-2,6.420246E-2,-7.849267E-1,-7.180857E-2,5.6514895E-1,-8.600815E-1,7.6223105E-1,-1.4738476E-1,3.474302E-1,4.4786924E-1,8.712462E-1,-2.948068E-1,-9.733559E-1,-5.534054E-2,1.2590908E0,-4.112806E-1,1.1848512E-2,3.8121104E-1,-8.338318E-2,5.4438835E-1,8.177591E-2,2.545595E-1,9.569726E-1,-6.9706964E-1,1.1622268E0,-1.1014782E0,-2.499521E-1,1.3635536E-2,7.661777E-2,-5.4608687E-4,-2.6791653E-2,-1.6831307E-2,6.7196614E-3,3.198776E-2,1.0410492E-2,-2.2695757E-2,2.9298235E-2,-2.5992839E-2,2.348848E-2,4.821071E-2,-3.8489066E-2,5.517247E-2,3.35464E-2,-5.0861694E-2,6.0846616E-2,4.4907117E-3,8.924992E-2,-6.0334135E-2,-2.6579786E-2,7.966643E-2,-3.5331823E-2],"categories":[],"categories_nodes":[],"categories_segments":[],"categories_sizes":[],"default_left":[0,0,0,0,0,0,0,0,0,0,0,0,0,0,0,0,0,0,0,0,0,0,0,0,0,0,0,0,0,0,0,0,0,0,0,0,0,0,0,0,0,0,0,0,0,0,0,0,0,0,0],"id":14,"left_children":[1,3,5,7,9,11,13,15,17,19,21,23,25,-1,27,29,31,33,-1,35,37,39,41,43,45,47,49,-1,-1,-1,-1,-1,-1,-1,-1,-1,-1,-1,-1,-1,-1,-1,-1,-1,-1,-1,-1,-1,-1,-1,-1],"loss_changes":[1.6427339E2,1.6428604E2,2.9912598E1,6.0148987E1,1.8092667E1,1.5108017E1,1.2710547E1,6.75644E1,2.037659E1,1.3181168E1,7.240303E0,2.517527E1,1.8248413E1,0E0,2.3031483E0,3.0166077E1,4.2906654E1,1.266066E1,0E0,1.2552727E1,1.874801E1,1.4291822E1,4.4519043E0,2.1583923E1,6.096842E0,9.520416E0,2.7528599E1,0E0,0E0,0E0,0E0,0E0,0E0,0E0,0E0,0E0,0E0,0E0,0E0,0E0,0E0,0E0,0E0,0E0,0E0,0E0,0E0,0E0,0E0,0E0,0E0],"parents":[2147483647,0,0,1,1,2,2,3,3,4,4,5,5,6,6,7,7,8,8,9,9,10,10,11,11,12,12,14,14,15,15,16,16,17,17,19,19,20,20,21,21,22,22,23,23,24,24,25,25,26,26],"right_children":[2,4,6,8,10,12,14,16,18,20,22,24,26,-1,28,30,32,34,-1,36,38,40,42,44,46,48,50,-1,-1,-1,-1,-1,-1,-1,-1,-1,-1,-1,-1,-1,-1,-1,-1,-1,-1,-1,-1,-1,-1,-1,-1],"split_conditions":[1E0,1E0,1.87E1,1E0,1E0,6.69E-1,7.85E-1,1E0,1.66E2,8.96E-1,6.61E-1,1E0,1.9688481E5,-5.534054E-2,6E0,6E0,1.7E0,2.3E0,-8.338318E-2,5.74E-1,9.26E-1,1.5E0,4.4E0,6.63E-1,6.416369E4,9.1E1,2.0051098E5,1.3635536E-2,7.661777E-2,-5.4608687E-4,-2.6791653E-2,-1.6831307E-2,6.7196614E-3,3.198776E-2,1.0410492E-2,-2.2695757E-2,2.9298235E-2,-2.5992839E-2,2.348848E-2,4.821071E-2,-3.8489066E-2,5.517247E-2,3.35464E-2,-5.0861694E-2,6.0846616E-2,4.4907117E-3,8.924992E-2,-6.0334135E-2,-2.6579786E-2,7.966643E-2,-3.5331823E-2],"split_indices":[16,9,6,17,20,4,4,19,2,4,4,12,0,0,3,3,6,6,0,4,4,6,6,4,0,2,0,0,0,0,0,0,0,0,0,0,0,0,0,0,0,0,0,0,0,0,0,0,0,0,0],"split_type":[0,0,0,0,0,0,0,0,0,0,0,0,0,0,0,0,0,0,0,0,0,0,0,0,0,0,0,0,0,0,0,0,0,0,0,0,0,0,0,0,0,0,0,0,0,0,0,0,0,0,0],"sum_hessian":[2.6602312E3,2.4096152E3,2.5061604E2,1.8957582E3,5.1385706E2,2.394296E2,1.1186458E1,1.6067566E3,2.8900162E2,3.7329425E2,1.4056279E2,4.057086E1,1.9885873E2,2.0914433E0,9.095015E0,6.04064E2,1.0026926E3,2.8503415E2,3.967462E0,2.95025E2,7.826926E1,1.7639515E1,1.2292327E2,3.2202003E1,8.368857E0,1.6849406E2,3.036467E1,2.4064898E0,6.6885247E0,1.4359215E2,4.6047186E2,2.604152E2,7.422774E2,1.13185074E2,1.7184908E2,1.1399112E1,2.836259E2,3.055306E1,4.7716198E1,1.0455045E1,7.1844697E0,7.9404495E1,4.3518772E1,2.7988728E1,4.2132773E0,3.494884E0,4.873973E0,1.4129292E2,2.7201136E1,5.535052E0,2.4829617E1],"tree_param":{"num_deleted":"0","num_feature":"23","num_nodes":"51","size_leaf_vector":"1"}},{"base_weights":[1.05581E-2,-1.4758435E-1,3.7583828E-1,-8.140714E-2,-7.246177E-1,4.5015427E-1,-4.599542E-1,9.214317E-2,-2.779248E-1,-8.778986E-1,7.4926496E-2,3.7662244E-1,8.08471E-1,-6.166132E-1,5.8242828E-2,-1.7215014E-2,5.9976566E-1,-3.7416703E-1,1.9163363E-1,-1.0394483E0,-2.8509057E-1,-9.599282E-1,9.9084383E-1,2.809392E-1,6.6165304E-1,9.164628E-1,4.7588196E-1,-1.63693E-1,-1.2154337E0,-4.814344E-3,2.3985006E-2,-3.160205E-2,3.6951583E-2,-2.852661E-2,-6.3580917E-3,3.400476E-2,-9.8381415E-3,-5.7979625E-2,8.825461E-3,2.0392887E-2,-6.734838E-2,6.474137E-2,-6.731273E-2,6.083609E-3,7.955481E-2,2.3277126E-2,4.5849853E-3,4.2877905E-2,1.820237E-2,1.9184357E-2,5.6744285E-2,4.5872707E-2,-1.84364E-2,8.962312E-3,-6.503157E-2,1.8371696E-2,-7.158432E-2],"categories":[],"categories_nodes":[],"categories_segments":[],"categories_sizes":[],"default_left":[0,0,0,0,0,0,0,0,0,0,0,0,0,0,0,0,0,0,0,0,0,0,0,0,0,0,0,0,0,0,0,0,0,0,0,0,0,0,0,0,0,0,0,0,0,0,0,0,0,0,0,0,0,0,0,0,0],"id":15,"left_children":[1,3,5,7,9,11,13,15,17,19,21,23,25,27,-1,29,31,33,35,37,39,41,43,45,47,49,51,53,55,-1,-1,-1,-1,-1,-1,-1,-1,-1,-1,-1,-1,-1,-1,-1,-1,-1,-1,-1,-1,-1,-1,-1,-1,-1,-1,-1,-1],"loss_changes":[1.5588904E2,7.18586E1,5.0849342E1,5.7687634E1,2.379741E1,1.9436707E1,1.7790665E1,4.9891685E1,3.591422E1,1.5272522E1,3.1350653E1,1.682003E1,4.1147385E0,1.6569632E1,0E0,2.9132612E1,2.7793934E1,3.1869537E1,2.5854038E1,1.881305E1,2.718101E1,1.530261E1,8.939663E0,1.6326614E1,8.781639E0,1.0569519E1,1.269702E1,1.4408966E1,9.586529E0,0E0,0E0,0E0,0E0,0E0,0E0,0E0,0E0,0E0,0E0,0E0,0E0,0E0,0E0,0E0,0E0,0E0,0E0,0E0,0E0,0E0,0E0,0E0,0E0,0E0,0E0,0E0,0E0],"parents":[2147483647,0,0,1,1,2,2,3,3,4,4,5,5,6,6,7,7,8,8,9,9,10,10,11,11,12,12,13,13,15,15,16,16,17,17,18,18,19,19,20,20,21,21,22,22,23,23,24,24,25,25,26,26,27,27,28,28],"right_children":[2,4,6,8,10,12,14,16,18,20,22,24,26,28,-1,30,32,34,36,38,40,42,44,46,48,50,52,54,56,-1,-1,-1,-1,-1,-1,-1,-1,-1,-1,-1,-1,-1,-1,-1,-1,-1,-1,-1,-1,-1,-1,-1,-1,-1,-1,-1,-1],"split_conditions":[9.8E1,1E0,1E0,1E0,1.9688481E5,1E0,2.43E1,9.1E1,1E0,1E0,5.9E0,1.139154E5,2.9E1,3.5E1,5.8242828E-2,1E0,8E-1,4.7E0,2.3E0,1.24E2,8.24E-1,4E-1,7.7E1,8.19E-1,1E0,8.06E-1,2.5E0,7.828701E4,1E0,-4.814344E-3,2.3985006E-2,-3.160205E-2,3.6951583E-2,-2.852661E-2,-6.3580917E-3,3.400476E-2,-9.8381415E-3,-5.7979625E-2,8.825461E-3,2.0392887E-2,-6.734838E-2,6.474137E-2,-6.731273E-2,6.083609E-3,7.955481E-2,2.3277126E-2,4.5849853E-3,4.2877905E-2,1.820237E-2,1.9184357E-2,5.6744285E-2,4.5872707E-2,-1.84364E-2,8.962312E-3,-6.503157E-2,1.8371696E-2,-7.158432E-2],"split_indices":[1,16,16,22,0,17,6,2,17,15,6,0,3,2,0,17,6,6,6,2,4,6,1,4,22,4,6,0,5,0,0,0,0,0,0,0,0,0,0,0,0,0,0,0,0,0,0,0,0,0,0,0,0,0,0,0,0],"split_type":[0,0,0,0,0,0,0,0,0,0,0,0,0,0,0,0,0,0,0,0,0,0,0,0,0,0,0,0,0,0,0,0,0,0,0,0,0,0,0,0,0,0,0,0,0,0,0,0,0,0,0,0,0,0,0,0,0],"sum_hessian":[2.6966553E3,1.8823268E3,8.143285E2,1.6896858E3,1.9264096E2,7.4825726E2,6.6071236E1,8.9755804E2,7.921278E2,1.6156859E2,3.1072365E1,6.225517E2,1.25705605E2,6.0826992E1,5.2442417E0,7.392631E2,1.5829492E2,6.575561E2,1.345717E2,1.2637575E2,3.519285E1,1.4566391E1,1.6505976E1,4.6757492E2,1.5497678E2,9.356839E1,3.213721E1,3.5357536E1,2.5469456E1,6.384721E2,1.0079096E2,1.5719311E1,1.4257562E2,3.656001E2,2.91956E2,5.927467E1,7.529703E1,1.1505404E2,1.1321709E1,2.1668537E1,1.352431E1,1.7867225E0,1.2779668E1,7.2339053E0,9.27207E0,2.3594765E2,2.3162726E2,9.232223E1,6.265454E1,2.8008026E1,6.556036E1,2.1047226E1,1.1089986E1,2.7811108E1,7.5464315E0,2.9773762E0,2.2492079E1],"tree_param":{"num_deleted":"0","num_feature":"23","num_nodes":"57","size_leaf_vector":"1"}},{"base_weights":[1.053927E-2,-9.607822E-2,4.230217E-1,-1.8313204E-1,4.230815E-1,4.9506706E-1,-3.1017494E-1,-4.495389E-1,3.4893703E-2,3.576814E-3,5.8404064E-1,6.831568E-1,1.1083913E-1,2.5918365E-1,-1.1132243E0,-5.083601E-1,2.353987E-2,6.593477E-3,7.44581E-1,9.1966623E-1,-3.1149527E-1,6.41812E-1,-1.2182201E0,-6.563855E-2,6.9445133E-1,2.0527796E-1,-8.276458E-2,6.36015E-1,-6.8398446E-1,3.7183397E-2,-6.937411E-2,-8.00612E-3,-3.0356351E-2,-2.63711E-2,2.00503E-2,-4.080396E-3,1.2637997E-2,4.5286343E-2,-7.262651E-2,7.2808616E-2,2.3192793E-2,4.315741E-3,-6.376804E-2,-6.539533E-2,3.2962512E-2,-1.0135614E-1,5.0486863E-2,-1.2679274E-2,3.599227E-2,1.9543229E-2,-1.5364691E-2,-5.4272946E-2,4.4532973E-2,4.641517E-2,-6.205624E-2],"categories":[],"categories_nodes":[],"categories_segments":[],"categories_sizes":[],"default_left":[0,0,0,0,0,0,0,0,0,0,0,0,0,0,0,0,0,0,0,0,0,0,0,0,0,0,0,0,0,0,0,0,0,0,0,0,0,0,0,0,0,0,0,0,0,0,0,0,0,0,0,0,0,0,0],"id":16,"left_children":[1,3,5,7,9,11,13,15,17,19,21,23,25,27,29,31,33,35,37,39,41,43,45,-1,47,49,-1,51,53,-1,-1,-1,-1,-1,-1,-1,-1,-1,-1,-1,-1,-1,-1,-1,-1,-1,-1,-1,-1,-1,-1,-1,-1,-1,-1],"loss_changes":[1.1639574E2,9.512988E1,2.8868202E1,1.04673355E2,2.0411674E1,3.5722603E1,2.2807062E1,2.258023E1,1.9915277E1,2.477374E1,2.3530243E1,8.404053E0,2.7691406E1,1.0965845E1,1.1533436E1,2.471402E1,1.9062649E1,2.075152E1,1.4778742E1,4.6958294E0,2.4601643E1,8.082184E0,1.4898413E1,0E0,8.154648E0,1.5012447E1,0E0,1.0474522E1,9.183079E0,0E0,0E0,0E0,0E0,0E0,0E0,0E0,0E0,0E0,0E0,0E0,0E0,0E0,0E0,0E0,0E0,0E0,0E0,0E0,0E0,0E0,0E0,0E0,0E0,0E0,0E0],"parents":[2147483647,0,0,1,1,2,2,3,3,4,4,5,5,6,6,7,7,8,8,9,9,10,10,11,11,12,12,13,13,14,14,15,15,16,16,17,17,18,18,19,19,20,20,21,21,22,22,24,24,25,25,27,27,28,28],"right_children":[2,4,6,8,10,12,14,16,18,20,22,24,26,28,30,32,34,36,38,40,42,44,46,-1,48,50,-1,52,54,-1,-1,-1,-1,-1,-1,-1,-1,-1,-1,-1,-1,-1,-1,-1,-1,-1,-1,-1,-1,-1,-1,-1,-1,-1,-1],"split_conditions":[1E0,1E0,1E0,1E0,5.4E1,1E0,3.1E1,1E0,9.75E-1,6.87E-1,1.16E2,8.5E1,1.15E2,7.828701E4,1E0,2E0,4.4E1,8.6E1,1.08E2,5.68E-1,4E1,5.12E-1,9.01E-1,-6.563855E-2,5.68E-1,4E0,-8.276458E-2,1.02E2,5.52E-1,3.7183397E-2,-6.937411E-2,-8.00612E-3,-3.0356351E-2,-2.63711E-2,2.00503E-2,-4.080396E-3,1.2637997E-2,4.5286343E-2,-7.262651E-2,7.2808616E-2,2.3192793E-2,4.315741E-3,-6.376804E-2,-6.539533E-2,3.2962512E-2,-1.0135614E-1,5.0486863E-2,-1.2679274E-2,3.599227E-2,1.9543229E-2,-1.5364691E-2,-5.4272946E-2,4.4532973E-2,4.641517E-2,-6.205624E-2],"split_indices":[9,17,16,19,1,18,2,12,4,4,1,1,2,0,5,5,1,1,1,4,1,4,4,0,4,5,0,1,4,0,0,0,0,0,0,0,0,0,0,0,0,0,0,0,0,0,0,0,0,0,0,0,0,0,0],"split_type":[0,0,0,0,0,0,0,0,0,0,0,0,0,0,0,0,0,0,0,0,0,0,0,0,0,0,0,0,0,0,0,0,0,0,0,0,0,0,0,0,0,0,0,0,0,0,0,0,0,0,0,0,0,0,0],"sum_hessian":[2.6447664E3,2.1021697E3,5.425968E2,1.800847E3,3.0132266E2,4.9434613E2,4.825065E1,8.100188E2,9.908282E2,8.383842E1,2.1748424E2,3.3135913E2,1.6298701E2,2.862962E1,1.9621029E1,7.2037494E2,8.9643845E1,9.538027E2,3.7025536E1,2.0964392E1,6.2874027E1,2.1135321E2,6.1310325E0,1.2161433E0,3.3014297E2,1.5555304E2,7.4339886E0,2.0689173E1,7.9404464E0,2.3047695E0,1.731626E1,1.5974806E2,5.606269E2,3.6284515E1,5.3359333E1,7.0269543E2,2.511072E2,3.5043087E1,1.9824512E0,8.621671E0,1.2342721E1,4.5150005E1,1.7724026E1,1.2175776E0,2.1013564E2,4.5640936E0,1.5669388E0,8.378071E0,3.217649E2,1.1437777E2,4.1175266E1,2.2455988E0,1.8443575E1,1.8681326E0,6.072314E0],"tree_param":{"num_deleted":"0","num_feature":"23","num_nodes":"55","size_leaf_vector":"1"}},{"base_weights":[-1.6742453E-2,5.2831817E-2,-6.7145485E-1,2.0638454E-1,-2.7079463E-1,-7.2795767E-1,9.4322747E-1,8.520459E-2,6.656172E-1,-3.3356363E-1,2.7501836E-1,-8.59732E-1,-2.9175863E-1,1.3114853E0,-4.205325E-2,2.1748755E-3,3.607464E-1,7.470662E-1,4.13442E-1,-3.6734915E-1,4.1866985E-1,4.190113E-1,-7.2208785E-2,-7.36177E-1,-6.888994E-2,-9.1377896E-1,1.8220705E-1,2.3753636E-2,7.550017E-2,-1.8360876E-3,3.908738E-2,2.0900786E-2,-1.2598554E-2,2.7735842E-2,4.362045E-2,-1.0426702E-3,4.102278E-2,2.721398E-2,-1.9760994E-2,-7.23004E-2,3.678421E-2,2.7083471E-2,-6.775006E-2,-4.4644747E-2,-1.154315E-2,1.7568331E-2,-6.839078E-2,7.6053776E-2,-7.6364316E-3],"categories":[],"categories_nodes":[],"categories_segments":[],"categories_sizes":[],"default_left":[0,0,0,0,0,0,0,0,0,0,0,0,0,0,0,0,0,0,0,0,0,0,0,0,0,0,0,0,0,0,0,0,0,0,0,0,0,0,0,0,0,0,0,0,0,0,0,0,0],"id":17,"left_children":[1,3,5,7,9,11,13,15,17,19,21,23,25,27,-1,29,31,33,35,37,39,41,-1,43,-1,45,47,-1,-1,-1,-1,-1,-1,-1,-1,-1,-1,-1,-1,-1,-1,-1,-1,-1,-1,-1,-1,-1,-1],"loss_changes":[1.19157936E2,1.17574425E2,2.3612015E1,8.922953E1,2.6178295E1,1.3736832E1,6.971688E0,2.906822E1,6.5683594E0,1.7520721E1,2.0181868E1,1.0915604E1,1.7257761E1,5.7680225E-1,0E0,2.9665869E1,1.0429138E1,5.5879974E0,1.4862228E1,1.6844627E1,1.8702875E1,1.6780622E1,0E0,1.1881226E1,0E0,1.4977213E1,1.5360598E1,0E0,0E0,0E0,0E0,0E0,0E0,0E0,0E0,0E0,0E0,0E0,0E0,0E0,0E0,0E0,0E0,0E0,0E0,0E0,0E0,0E0,0E0],"parents":[2147483647,0,0,1,1,2,2,3,3,4,4,5,5,6,6,7,7,8,8,9,9,10,10,11,11,12,12,13,13,15,15,16,16,17,17,18,18,19,19,20,20,21,21,23,23,25,25,26,26],"right_children":[2,4,6,8,10,12,14,16,18,20,22,24,26,28,-1,30,32,34,36,38,40,42,-1,44,-1,46,48,-1,-1,-1,-1,-1,-1,-1,-1,-1,-1,-1,-1,-1,-1,-1,-1,-1,-1,-1,-1,-1,-1],"split_conditions":[1E0,1E0,2.23E1,1E0,1.3E1,1E0,5.552354E4,1E0,8.84E-1,3.627049E5,1E0,5E0,5.95598E4,1.4E1,-4.205325E-2,1.74E1,1E0,7.65E-1,9.28E-1,5.01E-1,7.49E-1,9.49E-1,-7.2208785E-2,4E0,-6.888994E-2,1.170874E4,6.90347E4,2.3753636E-2,7.550017E-2,-1.8360876E-3,3.908738E-2,2.0900786E-2,-1.2598554E-2,2.7735842E-2,4.362045E-2,-1.0426702E-3,4.102278E-2,2.721398E-2,-1.9760994E-2,-7.23004E-2,3.678421E-2,2.7083471E-2,-6.775006E-2,-4.4644747E-2,-1.154315E-2,1.7568331E-2,-6.839078E-2,7.6053776E-2,-7.6364316E-3],"split_indices":[16,18,6,9,6,20,0,17,4,0,13,5,0,3,0,6,14,4,4,4,4,4,0,5,0,0,0,0,0,0,0,0,0,0,0,0,0,0,0,0,0,0,0,0,0,0,0,0,0],"split_type":[0,0,0,0,0,0,0,0,0,0,0,0,0,0,0,0,0,0,0,0,0,0,0,0,0,0,0,0,0,0,0,0,0,0,0,0,0,0,0,0,0,0,0,0,0,0,0,0,0],"sum_hessian":[2.6141372E3,2.3638567E3,2.5028049E2,1.6034308E3,7.6042596E2,2.4234908E2,7.931401E0,1.2696007E3,3.3383017E2,6.8234454E2,7.80814E1,1.8537648E2,5.6972595E1,6.794148E0,1.1372526E0,9.763904E2,2.9321027E2,2.5084753E2,8.298264E1,6.5350494E2,2.8839602E1,7.274485E1,5.336548E0,1.5163396E2,3.374253E1,2.4236843E1,3.2735752E1,1.9540939E0,4.840054E0,9.3089636E2,4.5493996E1,2.6843777E2,2.4772503E1,1.0111043E2,1.497371E2,4.060485E1,4.2377792E1,1.8836903E1,6.34668E2,3.6731E0,2.5166502E1,6.869016E1,4.054685E0,1.15153336E2,3.6480614E1,6.4606786E0,1.7776165E1,5.841921E0,2.689383E1],"tree_param":{"num_deleted":"0","num_feature":"23","num_nodes":"49","size_leaf_vector":"1"}},{"base_weights":[-3.8601E-2,3.7183065E-2,-8.21885E-1,-7.5272284E-2,4.16451E-1,-9.0179217E-1,7.2914284E-1,5.1121157E-2,-3.401137E-1,5.396432E-1,1.4737971E-1,-9.2396414E-1,6.2161338E-2,1.0195872E0,1.6476557E-2,2.0815547E-1,-1.3668913E-1,-4.237303E-1,2.609042E-1,5.8419347E-1,-1.0779945E-1,4.163972E-1,-2.5222468E-1,-9.459862E-1,6.058316E-1,2.3108354E-2,5.9081703E-2,-4.6179697E-2,4.297234E-2,3.2743316E-3,2.3271406E-2,-1.1682021E-2,1.3841002E-2,-2.4998007E-2,1.6948335E-2,4.254402E-2,-1.0335322E-2,2.9822601E-2,-6.743627E-2,7.982475E-3,-8.2655326E-2,2.5250498E-2,-7.596552E-2,-3.310745E-2,1.07168425E-2,-1.8877134E-2,-5.076297E-2,7.1264446E-2,-3.675594E-2],"categories":[],"categories_nodes":[],"categories_segments":[],"categories_sizes":[],"default_left":[0,0,0,0,0,0,0,0,0,0,0,0,0,0,0,0,0,0,0,0,0,0,0,0,0,0,0,0,0,0,0,0,0,0,0,0,0,0,0,0,0,0,0,0,0,0,0,0,0],"id":18,"left_children":[1,3,5,7,9,11,13,15,17,19,21,23,-1,25,27,29,31,33,35,37,39,41,43,45,47,-1,-1,-1,-1,-1,-1,-1,-1,-1,-1,-1,-1,-1,-1,-1,-1,-1,-1,-1,-1,-1,-1,-1,-1],"loss_changes":[1.5268365E2,1.00078255E2,2.8779617E1,6.060955E1,1.770781E1,1.1432617E1,2.3987756E0,3.6192436E1,2.9505318E1,1.0669136E1,1.8369516E1,7.802658E0,0E0,2.0131683E-1,4.276925E0,2.44962E1,2.2474655E1,3.0045135E1,2.0054638E1,8.9600525E0,1.0396694E1,1.8249348E1,1.3335056E1,7.962448E0,5.0639997E0,0E0,0E0,0E0,0E0,0E0,0E0,0E0,0E0,0E0,0E0,0E0,0E0,0E0,0E0,0E0,0E0,0E0,0E0,0E0,0E0,0E0,0E0,0E0,0E0],"parents":[2147483647,0,0,1,1,2,2,3,3,4,4,5,5,6,6,7,7,8,8,9,9,10,10,11,11,13,13,14,14,15,15,16,16,17,17,18,18,19,19,20,20,21,21,22,22,23,23,24,24],"right_children":[2,4,6,8,10,12,14,16,18,20,22,24,-1,26,28,30,32,34,36,38,40,42,44,46,48,-1,-1,-1,-1,-1,-1,-1,-1,-1,-1,-1,-1,-1,-1,-1,-1,-1,-1,-1,-1,-1,-1,-1,-1],"split_conditions":[1E0,1.06E2,1.87E1,1E0,1E0,1.64E2,1E0,1E0,1E0,1E0,1E0,8.9057675E5,6.2161338E-2,7.1E1,1.5E1,5.7E0,9.1E0,1.46E1,2.3E0,1E0,1.1566871E5,5.2E1,7.923531E4,5E-1,7E0,2.3108354E-2,5.9081703E-2,-4.6179697E-2,4.297234E-2,3.2743316E-3,2.3271406E-2,-1.1682021E-2,1.3841002E-2,-2.4998007E-2,1.6948335E-2,4.254402E-2,-1.0335322E-2,2.9822601E-2,-6.743627E-2,7.982475E-3,-8.2655326E-2,2.5250498E-2,-7.596552E-2,-3.310745E-2,1.07168425E-2,-1.8877134E-2,-5.076297E-2,7.1264446E-2,-3.675594E-2],"split_indices":[16,1,6,18,18,1,22,22,12,7,22,0,0,1,3,6,6,6,6,10,0,3,0,6,2,0,0,0,0,0,0,0,0,0,0,0,0,0,0,0,0,0,0,0,0,0,0,0,0],"split_type":[0,0,0,0,0,0,0,0,0,0,0,0,0,0,0,0,0,0,0,0,0,0,0,0,0,0,0,0,0,0,0,0,0,0,0,0,0,0,0,0,0,0,0,0,0,0,0,0,0],"sum_hessian":[2.5706304E3,2.3447266E3,2.2590378E2,1.8091143E3,5.356123E2,2.1523375E2,1.0670014E1,1.2252029E3,5.839113E2,3.6671097E2,1.6890135E2,2.1359518E2,1.6385726E0,7.27461E0,3.3954043E0,6.6721466E2,5.579883E2,5.128553E2,7.105603E1,3.4319366E2,2.3517307E1,1.0091942E2,6.798193E1,2.1094023E2,2.654946E0,2.5060802E0,4.76853E0,1.5600324E0,1.8353721E0,4.3001E2,2.3720464E2,4.5236243E2,1.0562585E2,4.6656744E2,4.6287853E1,3.1054928E1,4.0001102E1,3.417179E2,1.4757497E0,2.0812021E1,2.7052848E0,9.720851E1,3.7109005E0,3.5964268E1,3.201767E1,2.361445E1,1.8732579E2,1.608869E0,1.0460773E0],"tree_param":{"num_deleted":"0","num_feature":"23","num_nodes":"49","size_leaf_vector":"1"}},{"base_weights":[3.273337E-3,-2.197961E-1,2.4091306E-1,-3.29824E-1,1.4897016E-1,3.205775E-1,-6.199943E-1,-2.7996686E-1,-8.2396626E-1,2.7433425E-1,-5.25338E-1,4.5557767E-1,2.8119342E-2,-7.778835E-1,6.0296346E-2,-6.037188E-1,-1.8469486E-1,-9.32263E-1,1.2890687E0,7.786756E-2,5.410436E-1,-8.8237983E-1,6.9857645E-1,3.273297E-1,6.283684E-1,-4.0592343E-2,7.2813994E-1,-3.0449826E-2,-1.0295862E0,6.1764866E-3,-3.8599264E-2,-2.3076618E-3,-2.3608465E-2,-5.211025E-2,1.0223765E-2,3.3237834E-2,8.317315E-2,-4.7981185E-3,4.3790482E-2,3.085922E-2,-7.444293E-2,4.5392616E-3,-6.1775435E-2,-6.706386E-2,5.6110468E-2,-5.6183733E-2,1.7654378E-2,4.0261306E-2,2.0564875E-2,-1.5662933E-2,1.1007641E-2,4.6761088E-2,-2.3037802E-2,3.9176706E-2,-6.4608924E-2,-6.1290678E-2,4.6837176E-3],"categories":[],"categories_nodes":[],"categories_segments":[],"categories_sizes":[],"default_left":[0,0,0,0,0,0,0,0,0,0,0,0,0,0,0,0,0,0,0,0,0,0,0,0,0,0,0,0,0,0,0,0,0,0,0,0,0,0,0,0,0,0,0,0,0,0,0,0,0,0,0,0,0,0,0,0,0],"id":19,"left_children":[1,3,5,7,9,11,13,15,17,19,21,23,25,27,-1,29,31,33,35,37,39,41,43,45,47,49,51,53,55,-1,-1,-1,-1,-1,-1,-1,-1,-1,-1,-1,-1,-1,-1,-1,-1,-1,-1,-1,-1,-1,-1,-1,-1,-1,-1,-1,-1],"loss_changes":[1.4005836E2,5.534575E1,8.793558E1,2.5636848E1,2.6676994E1,4.6243187E1,3.227324E1,2.9352798E1,2.310447E1,1.3860691E1,2.2268578E1,1.7555634E1,1.7878025E1,1.8903881E1,0E0,2.6619598E1,2.9430454E1,1.166433E1,8.300686E-2,2.1437677E1,1.82874E1,1.3446047E1,1.1657341E1,1.7668907E1,1.2735718E1,2.416018E1,8.609749E0,2.8111635E1,1.670391E1,0E0,0E0,0E0,0E0,0E0,0E0,0E0,0E0,0E0,0E0,0E0,0E0,0E0,0E0,0E0,0E0,0E0,0E0,0E0,0E0,0E0,0E0,0E0,0E0,0E0,0E0,0E0,0E0],"parents":[2147483647,0,0,1,1,2,2,3,3,4,4,5,5,6,6,7,7,8,8,9,9,10,10,11,11,12,12,13,13,15,15,16,16,17,17,18,18,19,19,20,20,21,21,22,22,23,23,24,24,25,25,26,26,27,27,28,28],"right_children":[2,4,6,8,10,12,14,16,18,20,22,24,26,28,-1,30,32,34,36,38,40,42,44,46,48,50,52,54,56,-1,-1,-1,-1,-1,-1,-1,-1,-1,-1,-1,-1,-1,-1,-1,-1,-1,-1,-1,-1,-1,-1,-1,-1,-1,-1,-1,-1],"split_conditions":[7.9E1,1E0,1E0,1E0,1E0,1E0,2.43E1,1.5E0,7.8E1,4E0,1E0,1E0,1.49E1,2E0,6.0296346E-2,6.59E-1,1E0,1.24E2,4.4E0,7.3E1,1.4E2,1.646527E4,1.2E1,2E0,1E0,1.06E2,9.01E-1,3.51436E4,1.9688481E5,6.1764866E-3,-3.8599264E-2,-2.3076618E-3,-2.3608465E-2,-5.211025E-2,1.0223765E-2,3.3237834E-2,8.317315E-2,-4.7981185E-3,4.3790482E-2,3.085922E-2,-7.444293E-2,4.5392616E-3,-6.1775435E-2,-6.706386E-2,5.6110468E-2,-5.6183733E-2,1.7654378E-2,4.0261306E-2,2.0564875E-2,-1.5662933E-2,1.1007641E-2,4.6761088E-2,-2.3037802E-2,3.9176706E-2,-6.4608924E-2,-6.1290678E-2,4.6837176E-3],"split_indices":[1,20,16,16,11,18,6,6,1,5,17,9,6,5,0,4,18,2,6,1,2,0,3,3,22,1,4,0,0,0,0,0,0,0,0,0,0,0,0,0,0,0,0,0,0,0,0,0,0,0,0,0,0,0,0,0,0],"split_type":[0,0,0,0,0,0,0,0,0,0,0,0,0,0,0,0,0,0,0,0,0,0,0,0,0,0,0,0,0,0,0,0,0,0,0,0,0,0,0,0,0,0,0,0,0,0,0,0,0,0,0,0,0,0,0,0,0],"sum_hessian":[2.6401055E3,1.3618391E3,1.2782664E3,1.048967E3,3.1287216E2,1.1705743E3,1.0769197E2,9.542529E2,9.4714066E1,2.6432358E2,4.8548584E1,8.0050116E2,3.700732E2,9.964918E1,8.042788E0,2.1575171E2,7.385012E2,9.062802E1,4.086044E0,1.5294864E2,1.1137493E2,3.7800446E1,1.074814E1,4.611344E2,3.3936676E2,3.3785272E2,3.222048E1,2.5386038E1,7.4263145E1,4.0589508E1,1.751622E2,4.9912164E2,2.3937955E2,8.271157E1,7.916455E0,2.5722702E0,1.5137738E0,1.2631165E2,2.663698E1,1.0801913E2,3.3558016E0,1.0262259E1,2.7538185E1,1.4758031E0,9.272337E0,7.299695E0,4.538347E2,1.8551205E2,1.5385472E2,1.650526E2,1.7280013E2,2.7622559E1,4.597925E0,1.5661363E1,9.724676E0,6.3141396E1,1.1121748E1],"tree_param":{"num_deleted":"0","num_feature":"23","num_nodes":"57","size_leaf_vector":"1"}},{"base_weights":[-2.8284579E-3,-2.1565355E-1,2.0567162E-1,-2.8776494E-1,2.3486002E-1,3.743142E-1,-9.2199035E-3,-5.056457E-1,-1.0968672E-1,8.2860135E-2,1.0236251E0,2.9222083E-1,6.817547E-1,-1.2839392E-1,5.85052E-1,-6.426856E-1,-5.378659E-2,-7.852253E-2,-1.3391732E0,3.590674E-1,-1.8169771E-1,1.1868219E0,-2.884467E-1,3.4961048E-1,-4.0870598E-1,1.3738784E0,6.084309E-1,-3.512425E-1,6.9828995E-2,-1.071251E0,6.768652E-1,-3.6571544E-2,1.4723765E-3,-1.2694272E-2,2.5985751E-2,-7.755512E-3,1.9759035E-2,-8.7912016E-2,6.508993E-2,-4.2868588E-2,2.3277659E-2,-8.94541E-2,-2.047831E-3,7.946751E-3,6.4748615E-2,3.367008E-2,-6.873802E-2,1.1110304E-2,2.678825E-2,-3.19877E-2,3.9814807E-2,7.7075504E-2,3.740885E-2,-7.747166E-2,3.312038E-2,-3.0433064E-2,1.8691997E-3,-7.425553E-4,3.4197E-2,-9.316947E-2,2.5548434E-2,4.2610012E-2,1.115949E-2],"categories":[],"categories_nodes":[],"categories_segments":[],"categories_sizes":[],"default_left":[0,0,0,0,0,0,0,0,0,0,0,0,0,0,0,0,0,0,0,0,0,0,0,0,0,0,0,0,0,0,0,0,0,0,0,0,0,0,0,0,0,0,0,0,0,0,0,0,0,0,0,0,0,0,0,0,0,0,0,0,0,0,0],"id":20,"left_children":[1,3,5,7,9,11,13,15,17,19,21,23,25,27,29,31,33,35,37,39,41,43,45,47,49,51,53,55,57,59,61,-1,-1,-1,-1,-1,-1,-1,-1,-1,-1,-1,-1,-1,-1,-1,-1,-1,-1,-1,-1,-1,-1,-1,-1,-1,-1,-1,-1,-1,-1,-1,-1],"loss_changes":[1.1524002E2,4.181913E1,4.7544476E1,4.294612E1,2.1241312E1,1.835234E1,4.099611E1,3.0813232E1,2.331077E1,1.1042664E1,6.4774055E0,2.3549667E1,6.987488E0,2.1320946E1,1.5429714E1,2.2816177E1,1.3560489E1,2.172335E1,1.8940088E1,9.96271E0,1.7435417E1,2.6486778E0,5.0780525E0,1.2649773E1,1.2898307E1,3.1219292E-1,1.7470867E1,2.274393E1,1.3322138E1,7.802613E0,7.1462784E0,0E0,0E0,0E0,0E0,0E0,0E0,0E0,0E0,0E0,0E0,0E0,0E0,0E0,0E0,0E0,0E0,0E0,0E0,0E0,0E0,0E0,0E0,0E0,0E0,0E0,0E0,0E0,0E0,0E0,0E0,0E0,0E0],"parents":[2147483647,0,0,1,1,2,2,3,3,4,4,5,5,6,6,7,7,8,8,9,9,10,10,11,11,12,12,13,13,14,14,15,15,16,16,17,17,18,18,19,19,20,20,21,21,22,22,23,23,24,24,25,25,26,26,27,27,28,28,29,29,30,30],"right_children":[2,4,6,8,10,12,14,16,18,20,22,24,26,28,30,32,34,36,38,40,42,44,46,48,50,52,54,56,58,60,62,-1,-1,-1,-1,-1,-1,-1,-1,-1,-1,-1,-1,-1,-1,-1,-1,-1,-1,-1,-1,-1,-1,-1,-1,-1,-1,-1,-1,-1,-1,-1,-1],"split_conditions":[7.7E1,1E0,1E0,1E0,1E0,1.3572488E5,1E0,1E0,3.627049E5,3E0,1.2489765E5,9.653058E4,4E-1,1E0,1.295217E4,4.8E1,7.1E1,1E0,1E0,1E0,1.469638E4,6.61E-1,8.56E-1,1E0,1E0,1E0,7E-1,5.9E0,1.09E1,1.25E2,2.5E1,-3.6571544E-2,1.4723765E-3,-1.2694272E-2,2.5985751E-2,-7.755512E-3,1.9759035E-2,-8.7912016E-2,6.508993E-2,-4.2868588E-2,2.3277659E-2,-8.94541E-2,-2.047831E-3,7.946751E-3,6.4748615E-2,3.367008E-2,-6.873802E-2,1.1110304E-2,2.678825E-2,-3.19877E-2,3.9814807E-2,7.7075504E-2,3.740885E-2,-7.747166E-2,3.312038E-2,-3.0433064E-2,1.8691997E-3,-7.425553E-4,3.4197E-2,-9.316947E-2,2.5548434E-2,4.2610012E-2,1.115949E-2],"split_indices":[1,17,22,19,15,0,17,20,0,5,0,0,6,19,0,3,2,12,7,5,0,4,4,9,7,19,6,6,6,1,3,0,0,0,0,0,0,0,0,0,0,0,0,0,0,0,0,0,0,0,0,0,0,0,0,0,0,0,0,0,0,0,0],"split_type":[0,0,0,0,0,0,0,0,0,0,0,0,0,0,0,0,0,0,0,0,0,0,0,0,0,0,0,0,0,0,0,0,0,0,0,0,0,0,0,0,0,0,0,0,0,0,0,0,0,0,0,0,0,0,0,0,0,0,0,0,0,0,0],"sum_hessian":[2.5950144E3,1.2841709E3,1.3108434E3,1.1072935E3,1.7687752E2,7.340409E2,5.768025E2,4.971659E2,6.1012756E2,1.4922585E2,2.7651684E1,5.808829E2,1.5315802E2,4.811064E2,9.56961E1,3.811487E2,1.16017166E2,5.9608234E2,1.4045219E1,7.28308E1,7.6395035E1,2.4677706E1,2.9739785E0,5.3738477E2,4.349813E1,1.2972248E1,1.4018576E2,2.2612144E2,2.5498497E2,4.465793E0,9.123031E1,3.366154E2,4.4533333E1,8.642142E1,2.9595749E1,5.137005E2,8.238184E1,1.2410221E1,1.6349983E0,5.29475E0,6.753605E1,5.207624E0,7.1187416E1,2.584412E0,2.2093294E1,1.778954E0,1.1950245E0,3.2033838E2,2.1704636E2,3.6893272E1,6.604859E0,9.076823E0,3.895425E0,2.7449105E0,1.3744086E2,1.3568205E2,9.0439384E1,2.2494324E2,3.0041729E1,2.8574867E0,1.6083065E0,6.516652E1,2.6063787E1],"tree_param":{"num_deleted":"0","num_feature":"23","num_nodes":"63","size_leaf_vector":"1"}},{"base_weights":[-1.843946E-2,1.6286108E-1,-2.359321E-1,-7.718508E-2,3.7205735E-1,-3.7583357E-1,1.507711E-1,-1.4733581E-1,5.011857E-1,4.5126557E-1,9.773652E-2,-4.5522E-1,8.5847735E-2,3.6901137E-1,-1.24510586E-1,-2.2113405E-1,3.912951E-1,9.0125835E-1,1.4545783E-1,3.3280033E-1,6.4386994E-1,2.7616706E-1,-4.781136E-1,-5.133279E-1,2.3653278E-1,-2.9844373E-1,4.1211084E-1,-9.92606E-1,4.263358E-1,-3.0510542E-1,5.280177E-1,-1.6298544E-2,1.4957993E-2,3.0384857E-2,-4.1218154E-2,1.9814752E-3,6.84721E-2,-3.5163503E-2,4.063381E-2,4.3036696E-3,2.718529E-2,-8.089841E-2,3.4042563E-2,-6.510311E-3,3.6040343E-2,4.7142548E-4,-7.412885E-2,-2.3199378E-2,-6.0930908E-2,-6.998084E-2,1.9610558E-2,1.7244816E-2,-5.2388597E-2,7.43314E-3,4.7581572E-2,-8.12368E-2,4.5126803E-2,-7.7390224E-2,2.3185685E-2,-7.570464E-3,-6.31074E-2,5.236396E-2,-4.137177E-4],"categories":[],"categories_nodes":[],"categories_segments":[],"categories_sizes":[],"default_left":[0,0,0,0,0,0,0,0,0,0,0,0,0,0,0,0,0,0,0,0,0,0,0,0,0,0,0,0,0,0,0,0,0,0,0,0,0,0,0,0,0,0,0,0,0,0,0,0,0,0,0,0,0,0,0,0,0,0,0,0,0,0,0],"id":21,"left_children":[1,3,5,7,9,11,13,15,17,19,21,23,25,27,29,31,33,35,37,39,41,43,45,47,49,51,53,55,57,59,61,-1,-1,-1,-1,-1,-1,-1,-1,-1,-1,-1,-1,-1,-1,-1,-1,-1,-1,-1,-1,-1,-1,-1,-1,-1,-1,-1,-1,-1,-1,-1,-1],"loss_changes":[1.01186935E2,7.031085E1,6.316974E1,2.6550282E1,1.6209099E1,3.144748E1,1.8708366E1,2.3250683E1,9.94706E0,1.3022858E1,1.7483221E1,2.9520142E1,1.5993001E1,1.3967388E1,1.6437054E1,2.8088507E1,1.9069153E1,1.3313427E1,2.2473991E1,1.8752647E1,1.9492622E1,2.3503262E1,1.9756166E1,2.2924744E1,1.5159346E1,2.865861E1,9.64827E0,1.0224447E1,1.305624E1,1.5814173E1,8.447949E0,0E0,0E0,0E0,0E0,0E0,0E0,0E0,0E0,0E0,0E0,0E0,0E0,0E0,0E0,0E0,0E0,0E0,0E0,0E0,0E0,0E0,0E0,0E0,0E0,0E0,0E0,0E0,0E0,0E0,0E0,0E0,0E0],"parents":[2147483647,0,0,1,1,2,2,3,3,4,4,5,5,6,6,7,7,8,8,9,9,10,10,11,11,12,12,13,13,14,14,15,15,16,16,17,17,18,18,19,19,20,20,21,21,22,22,23,23,24,24,25,25,26,26,27,27,28,28,29,29,30,30],"right_children":[2,4,6,8,10,12,14,16,18,20,22,24,26,28,30,32,34,36,38,40,42,44,46,48,50,52,54,56,58,60,62,-1,-1,-1,-1,-1,-1,-1,-1,-1,-1,-1,-1,-1,-1,-1,-1,-1,-1,-1,-1,-1,-1,-1,-1,-1,-1,-1,-1,-1,-1,-1,-1],"split_conditions":[1E0,7.5E1,1.01E2,9.47E-1,8.96E-1,1E0,3.5E1,1E0,3.8E1,1E0,1E0,1E0,5.361863E4,2E0,1.16E2,1E0,6.4E1,1E0,1E0,1E0,5.44E-1,1E0,1E0,9.51E-1,6E0,1.3E1,8.1E1,9.83E-1,7.95312E3,1.0543065E5,1.13E2,-1.6298544E-2,1.4957993E-2,3.0384857E-2,-4.1218154E-2,1.9814752E-3,6.84721E-2,-3.5163503E-2,4.063381E-2,4.3036696E-3,2.718529E-2,-8.089841E-2,3.4042563E-2,-6.510311E-3,3.6040343E-2,4.7142548E-4,-7.412885E-2,-2.3199378E-2,-6.0930908E-2,-6.998084E-2,1.9610558E-2,1.7244816E-2,-5.2388597E-2,7.43314E-3,4.7581572E-2,-8.12368E-2,4.5126803E-2,-7.7390224E-2,2.3185685E-2,-7.570464E-3,-6.31074E-2,5.236396E-2,-4.137177E-4],"split_indices":[22,1,1,4,4,17,2,17,1,9,15,7,0,3,2,12,2,19,20,15,4,20,20,4,3,3,2,4,0,0,1,0,0,0,0,0,0,0,0,0,0,0,0,0,0,0,0,0,0,0,0,0,0,0,0,0,0,0,0,0,0,0,0],"split_type":[0,0,0,0,0,0,0,0,0,0,0,0,0,0,0,0,0,0,0,0,0,0,0,0,0,0,0,0,0,0,0,0,0,0,0,0,0,0,0,0,0,0,0,0,0,0,0,0,0,0,0,0,0,0,0,0,0,0,0,0,0,0,0],"sum_hessian":[2.564168E3,1.3985753E3,1.1655927E3,6.515608E2,7.470145E2,8.559538E2,3.096389E2,5.817459E2,6.981485E1,5.791453E2,1.678692E2,7.3037866E2,1.2557516E2,1.725236E2,1.3711528E2,5.1216345E2,6.958246E1,3.2137527E1,3.7677326E1,3.602773E2,2.1886801E2,1.2855583E2,3.9313366E1,6.7401843E2,5.6360237E1,5.76991E1,6.787606E1,6.310716E0,1.6621289E2,1.0781003E2,2.9305262E1,4.2658255E2,8.558092E1,5.949222E1,1.0090235E1,1.16964445E1,2.0441082E1,1.6559263E1,2.1118063E1,1.6668712E2,1.9359018E2,2.8332121E0,2.160348E2,6.7537704E1,6.1018127E1,2.7133862E1,1.2179503E1,6.314982E2,4.252021E1,4.2024856E0,5.2157753E1,3.1335527E1,2.6363575E1,4.6463478E1,2.141258E1,4.839253E0,1.471463E0,2.3376663E0,1.6387521E2,9.388998E1,1.3920045E1,1.4404945E1,1.4900315E1],"tree_param":{"num_deleted":"0","num_feature":"23","num_nodes":"63","size_leaf_vector":"1"}},{"base_weights":[1.9821376E-3,-9.239837E-2,3.69789E-1,-1.3876465E-1,5.0652933E-1,5.5702835E-1,1.4177942E-1,-7.9268865E-2,-5.056782E-1,6.743414E-1,-3.748275E-1,9.442541E-1,4.385756E-1,7.410425E-2,8.483254E-1,7.067897E-2,-2.521971E-1,6.740479E-2,-5.3817767E-1,-4.7743994E-1,7.569642E-1,-8.489433E-1,6.19667E-2,1.002004E0,-2.6782215E-1,2.0344833E-1,6.5064824E-1,1.0484979E-1,-8.934103E-2,1.0309994E0,-5.8694035E-2,4.6656067E-3,-6.427312E-2,-1.6024811E-2,6.159648E-3,-2.91965E-2,2.572813E-2,5.1507097E-2,-4.707144E-2,5.4249793E-2,2.6016219E-2,-5.4316908E-2,5.4437734E-2,5.6871798E-2,3.447858E-2,-6.25004E-2,4.2024244E-2,2.3884978E-2,-2.0291192E-2,3.5715897E-2,-2.8708847E-3,1.2523417E-2,-1.179582E-2,6.6370346E-2,1.6523028E-2],"categories":[],"categories_nodes":[],"categories_segments":[],"categories_sizes":[],"default_left":[0,0,0,0,0,0,0,0,0,0,0,0,0,0,0,0,0,0,0,0,0,0,0,0,0,0,0,0,0,0,0,0,0,0,0,0,0,0,0,0,0,0,0,0,0,0,0,0,0,0,0,0,0,0,0],"id":22,"left_children":[1,3,5,7,9,11,13,15,17,19,21,23,25,27,29,31,33,-1,35,37,39,41,-1,43,45,47,49,51,-1,53,-1,-1,-1,-1,-1,-1,-1,-1,-1,-1,-1,-1,-1,-1,-1,-1,-1,-1,-1,-1,-1,-1,-1,-1,-1],"loss_changes":[8.9451904E1,5.70171E1,2.238575E1,4.1525936E1,2.2077332E1,1.2822929E1,1.1346401E1,4.2533203E1,1.6720306E1,1.2191738E1,1.9606596E1,4.9395294E0,1.0980171E1,1.2708785E1,8.879593E0,2.7097734E1,1.9567898E1,0E0,1.2901863E1,7.219226E0,8.469635E0,1.007627E1,0E0,1.9198837E0,5.213319E0,1.8096079E1,5.3029327E0,1.0789121E1,0E0,3.6257095E0,0E0,0E0,0E0,0E0,0E0,0E0,0E0,0E0,0E0,0E0,0E0,0E0,0E0,0E0,0E0,0E0,0E0,0E0,0E0,0E0,0E0,0E0,0E0,0E0,0E0],"parents":[2147483647,0,0,1,1,2,2,3,3,4,4,5,5,6,6,7,7,8,8,9,9,10,10,11,11,12,12,13,13,14,14,15,15,16,16,18,18,19,19,20,20,21,21,23,23,24,24,25,25,26,26,27,27,29,29],"right_children":[2,4,6,8,10,12,14,16,18,20,22,24,26,28,30,32,34,-1,36,38,40,42,-1,44,46,48,50,52,-1,54,-1,-1,-1,-1,-1,-1,-1,-1,-1,-1,-1,-1,-1,-1,-1,-1,-1,-1,-1,-1,-1,-1,-1,-1,-1],"split_conditions":[1E0,1.49E1,1E0,1E0,9.05E-1,1.501373E4,9.47E-1,1E0,4.71E-1,4E0,7E0,5E1,1E0,9.4E-1,6.2E0,1.76E2,1E0,6.740479E-2,9.75E-1,4.45E-1,2.693333E4,1.41E2,6.19667E-2,4.3E0,5.9E0,8.44E-1,1.18E1,1E0,-8.934103E-2,4E0,-5.8694035E-2,4.6656067E-3,-6.427312E-2,-1.6024811E-2,6.159648E-3,-2.91965E-2,2.572813E-2,5.1507097E-2,-4.707144E-2,5.4249793E-2,2.6016219E-2,-5.4316908E-2,5.4437734E-2,5.6871798E-2,3.447858E-2,-6.25004E-2,4.2024244E-2,2.3884978E-2,-2.0291192E-2,3.5715897E-2,-2.8708847E-3,1.2523417E-2,-1.179582E-2,6.6370346E-2,1.6523028E-2],"split_indices":[9,6,22,11,4,0,4,22,4,3,5,3,19,4,6,2,17,0,4,4,0,2,0,6,6,4,6,18,0,5,0,0,0,0,0,0,0,0,0,0,0,0,0,0,0,0,0,0,0,0,0,0,0,0,0],"split_type":[0,0,0,0,0,0,0,0,0,0,0,0,0,0,0,0,0,0,0,0,0,0,0,0,0,0,0,0,0,0,0,0,0,0,0,0,0,0,0,0,0,0,0,0,0,0,0,0,0,0,0,0,0,0,0],"sum_hessian":[2.574856E3,2.049656E3,5.252E2,1.9030952E3,1.4656071E2,2.875904E2,2.376096E2,1.6386077E3,2.6448758E2,1.23316E2,2.324472E1,6.5733604E1,2.2185678E2,2.178483E2,1.9761309E1,8.779337E2,7.60674E2,3.85953E0,2.6062802E2,7.9341116E0,1.1538189E2,1.8333748E1,4.9109716E0,6.290957E1,2.8240366E0,1.0613882E2,1.15717964E2,2.152359E2,2.6123946E0,1.8573637E1,1.1876706E0,8.644379E2,1.3495743E1,6.437037E2,1.1697036E2,2.5019963E2,1.0428408E1,1.5800527E0,6.354059E0,4.6851315E1,6.853058E1,1.6724173E1,1.6095762E0,4.2043945E1,2.0865623E1,1.429423E0,1.3946135E0,7.3341576E1,3.279724E1,1.061629E2,9.555061E0,1.5098215E2,6.4253746E1,1.2422622E1,6.1510158E0],"tree_param":{"num_deleted":"0","num_feature":"23","num_nodes":"55","size_leaf_vector":"1"}},{"base_weights":[2.5126217E-2,8.343982E-2,-5.850795E-1,2.1992564E-1,-2.1967503E-1,-6.518123E-1,9.225387E-1,1.1729634E-1,6.245873E-1,-1.6397598E-1,-8.6096245E-1,-3.8717037E-1,-1.0190964E0,6.1303485E-2,-4.0238235E-2,1.7215285E-1,-2.4339174E-1,9.654768E-1,5.607664E-1,-2.286074E-1,3.614534E-1,3.1152394E-2,-1.2006669E0,5.52365E-1,-4.8389006E-1,-1.1824335E0,-1.2107698E-1,7.00773E-3,4.003017E-2,-7.196873E-2,-5.617472E-3,-7.916411E-2,5.346347E-2,1.2808258E-2,3.1500574E-2,-1.8850133E-3,-2.2663226E-2,2.3111299E-2,-6.285676E-2,-6.053291E-2,2.5085822E-2,-6.6354185E-2,1.7216474E-2,-4.969824E-2,5.2656084E-2,1.5228065E-2,-3.0037517E-2,-6.284068E-2,-2.1055965E-2,-5.9446223E-2,4.451164E-2],"categories":[],"categories_nodes":[],"categories_segments":[],"categories_sizes":[],"default_left":[0,0,0,0,0,0,0,0,0,0,0,0,0,0,0,0,0,0,0,0,0,0,0,0,0,0,0,0,0,0,0,0,0,0,0,0,0,0,0,0,0,0,0,0,0,0,0,0,0,0,0],"id":23,"left_children":[1,3,5,7,9,11,13,15,17,19,21,23,25,-1,-1,27,29,31,33,35,37,39,41,43,45,47,49,-1,-1,-1,-1,-1,-1,-1,-1,-1,-1,-1,-1,-1,-1,-1,-1,-1,-1,-1,-1,-1,-1,-1,-1],"loss_changes":[9.252954E1,9.822815E1,2.342212E1,6.790539E1,2.6194958E1,2.0775421E1,6.2446785E0,2.5900991E1,6.6580048E0,2.316222E1,1.7822632E1,1.1917166E1,1.3145943E1,0E0,0E0,2.2711643E1,2.6942818E1,1.5131332E1,5.768013E0,2.5964714E1,1.2786427E1,1.0634248E1,8.763138E0,1.0673886E1,1.0941887E1,3.8050613E0,1.7318668E1,0E0,0E0,0E0,0E0,0E0,0E0,0E0,0E0,0E0,0E0,0E0,0E0,0E0,0E0,0E0,0E0,0E0,0E0,0E0,0E0,0E0,0E0,0E0,0E0],"parents":[2147483647,0,0,1,1,2,2,3,3,4,4,5,5,6,6,7,7,8,8,9,9,10,10,11,11,12,12,15,15,16,16,17,17,18,18,19,19,20,20,21,21,22,22,23,23,24,24,25,25,26,26],"right_children":[2,4,6,8,10,12,14,16,18,20,22,24,26,-1,-1,28,30,32,34,36,38,40,42,44,46,48,50,-1,-1,-1,-1,-1,-1,-1,-1,-1,-1,-1,-1,-1,-1,-1,-1,-1,-1,-1,-1,-1,-1,-1,-1],"split_conditions":[1E0,1E0,2.23E1,1E0,1E0,1.8E1,5.552354E4,1E0,1.469638E4,1.27E1,6.97E-1,5.8E-1,1.9688481E5,6.1303485E-2,-4.0238235E-2,1.74E1,4E0,8E-1,2.936192E4,1E0,9.49E-1,2.106517E4,5.6E1,1.9E0,6E-1,1E0,1E0,7.00773E-3,4.003017E-2,-7.196873E-2,-5.617472E-3,-7.916411E-2,5.346347E-2,1.2808258E-2,3.1500574E-2,-1.8850133E-3,-2.2663226E-2,2.3111299E-2,-6.285676E-2,-6.053291E-2,2.5085822E-2,-6.6354185E-2,1.7216474E-2,-4.969824E-2,5.2656084E-2,1.5228065E-2,-3.0037517E-2,-6.284068E-2,-2.1055965E-2,-5.9446223E-2,4.451164E-2],"split_indices":[16,18,6,9,13,3,0,11,0,6,4,4,0,0,0,6,3,6,0,22,4,0,3,6,6,12,20,0,0,0,0,0,0,0,0,0,0,0,0,0,0,0,0,0,0,0,0,0,0,0,0],"split_type":[0,0,0,0,0,0,0,0,0,0,0,0,0,0,0,0,0,0,0,0,0,0,0,0,0,0,0,0,0,0,0,0,0,0,0,0,0,0,0,0,0,0,0,0,0,0,0,0,0,0,0],"sum_hessian":[2.597993E3,2.372163E3,2.2582974E2,1.6358507E3,7.3631244E2,2.1680098E2,9.028764E0,1.305933E3,3.2991763E2,6.7862604E2,5.7686386E1,1.2720161E2,8.959938E1,7.9261255E0,1.1026382E0,1.133989E3,1.7194398E2,4.9798553E1,2.8011908E2,6.047968E2,7.382923E1,1.6158922E1,4.1527462E1,1.143276E1,1.15768845E2,7.5542534E1,1.4056841E1,1.0802119E3,5.377715E1,1.599337E1,1.559506E2,1.3908247E0,4.840773E1,5.2755028E1,2.2736406E2,3.2758893E2,2.7720786E2,7.017462E1,3.654612E0,4.0083017E0,1.215062E1,3.8516922E1,3.0105405E0,2.5557406E0,8.877019E0,1.4736446E1,1.010324E2,6.822604E1,7.3164964E0,6.751873E0,7.3049674E0],"tree_param":{"num_deleted":"0","num_feature":"23","num_nodes":"51","size_leaf_vector":"1"}},{"base_weights":[-1.6699169E-2,-1.13290906E-1,3.6514506E-1,-5.5955205E-2,-7.069587E-1,4.9059147E-1,7.9898685E-2,6.527695E-2,-3.200301E-1,-7.7053094E-1,5.105293E-1,5.894569E-1,-2.3373054E-1,-5.179334E-1,2.1757527E-1,2.8142171E-2,7.9566365E-1,1.675019E-2,-4.2840046E-1,-8.393273E-1,-2.612925E-1,8.126147E-1,-4.664046E-2,1.016673E0,5.388902E-1,-6.985575E-1,4.491657E-1,4.0465E-1,-1.1804901E0,3.0309007E-1,-9.111529E-1,2.0414053E-3,-5.79233E-2,-1.7548611E-2,5.253151E-2,-2.7181769E-2,1.2590905E-2,-2.5509207E-2,5.9458753E-3,-2.3918936E-2,-4.8718322E-2,1.9987283E-2,-6.08289E-2,1.144888E-2,5.366655E-2,-6.76668E-2,5.75508E-2,2.4538307E-2,4.572347E-2,-6.377529E-2,6.0945236E-5,5.389457E-2,-2.4616757E-2,-9.435965E-3,4.5761455E-2,-8.868461E-2,-2.7984116E-2,1.0452597E-2,5.622199E-2,-7.584263E-2,3.207616E-2],"categories":[],"categories_nodes":[],"categories_segments":[],"categories_sizes":[],"default_left":[0,0,0,0,0,0,0,0,0,0,0,0,0,0,0,0,0,0,0,0,0,0,0,0,0,0,0,0,0,0,0,0,0,0,0,0,0,0,0,0,0,0,0,0,0,0,0,0,0,0,0,0,0,0,0,0,0,0,0,0,0],"id":24,"left_children":[1,3,5,7,9,11,13,15,17,19,21,23,25,27,29,31,33,35,37,39,41,43,-1,45,47,49,51,53,55,57,59,-1,-1,-1,-1,-1,-1,-1,-1,-1,-1,-1,-1,-1,-1,-1,-1,-1,-1,-1,-1,-1,-1,-1,-1,-1,-1,-1,-1,-1,-1],"loss_changes":[9.482566E1,6.98002E1,1.8534698E1,5.9957375E1,1.4373192E1,2.5940712E1,1.3260843E1,3.4801815E1,2.1512165E1,5.8084793E0,4.928363E0,6.3074417E0,1.4277845E1,1.8936413E1,1.2876913E1,1.8455353E1,1.8519302E1,1.9159492E1,2.0016266E1,6.900139E0,1.4334568E1,1.0390706E0,0E0,1.18919525E1,4.718231E0,1.0727246E1,1.1437322E1,4.222332E0,5.5737877E0,9.195961E0,9.85433E0,0E0,0E0,0E0,0E0,0E0,0E0,0E0,0E0,0E0,0E0,0E0,0E0,0E0,0E0,0E0,0E0,0E0,0E0,0E0,0E0,0E0,0E0,0E0,0E0,0E0,0E0,0E0,0E0,0E0,0E0],"parents":[2147483647,0,0,1,1,2,2,3,3,4,4,5,5,6,6,7,7,8,8,9,9,10,10,11,11,12,12,13,13,14,14,15,15,16,16,17,17,18,18,19,19,20,20,21,21,23,23,24,24,25,25,26,26,27,27,28,28,29,29,30,30],"right_children":[2,4,6,8,10,12,14,16,18,20,22,24,26,28,30,32,34,36,38,40,42,44,-1,46,48,50,52,54,56,58,60,-1,-1,-1,-1,-1,-1,-1,-1,-1,-1,-1,-1,-1,-1,-1,-1,-1,-1,-1,-1,-1,-1,-1,-1,-1,-1,-1,-1,-1,-1],"split_conditions":[1E0,1E0,1E0,1E0,1.87E1,1E0,7E0,1.74E1,6E0,1E0,1.06E2,1.170874E4,1E0,2.389122E4,1.17E2,1.22E2,5.3E1,3E0,1.18E2,2.354654E4,3.3E0,7.8E1,-4.664046E-2,1.1E0,1.2E2,5.9E0,2.8E1,1.763923E4,6.20509E4,1.43E1,1.9170288E5,2.0414053E-3,-5.79233E-2,-1.7548611E-2,5.253151E-2,-2.7181769E-2,1.2590905E-2,-2.5509207E-2,5.9458753E-3,-2.3918936E-2,-4.8718322E-2,1.9987283E-2,-6.08289E-2,1.144888E-2,5.366655E-2,-6.76668E-2,5.75508E-2,2.4538307E-2,4.572347E-2,-6.377529E-2,6.0945236E-5,5.389457E-2,-2.4616757E-2,-9.435965E-3,4.5761455E-2,-8.868461E-2,-2.7984116E-2,1.0452597E-2,5.622199E-2,-7.584263E-2,3.207616E-2],"split_indices":[9,16,18,18,6,16,3,6,3,12,1,0,21,0,2,1,1,3,2,0,6,1,0,6,2,6,2,0,0,6,0,0,0,0,0,0,0,0,0,0,0,0,0,0,0,0,0,0,0,0,0,0,0,0,0,0,0,0,0,0,0],"split_type":[0,0,0,0,0,0,0,0,0,0,0,0,0,0,0,0,0,0,0,0,0,0,0,0,0,0,0,0,0,0,0,0,0,0,0,0,0,0,0,0,0,0,0,0,0,0,0,0,0,0,0,0,0,0,0,0,0,0,0,0,0],"sum_hessian":[2.568864E3,2.050796E3,5.1806824E2,1.8711744E3,1.7962144E2,3.593239E2,1.5874431E2,1.2829482E3,5.882262E2,1.7105669E2,8.564768E0,3.1633267E2,4.2991245E1,2.919764E1,1.2954668E2,1.221864E3,6.1084244E1,1.4340742E2,4.448188E2,1.5012686E2,2.0929821E1,7.443798E0,1.1209698E0,3.145741E1,2.8487527E2,2.5566181E1,1.7425064E1,1.2366729E1,1.683091E1,1.2110313E2,8.443548E0,1.2098947E3,1.19692955E1,1.1043384E1,5.004086E1,4.199103E1,1.0141639E2,3.8705106E2,5.7767735E1,4.211076E1,1.080161E2,1.2713725E1,8.216096E0,2.878431E0,4.5653667E0,1.200745E0,3.0256664E1,2.5456395E2,3.0311316E1,1.3561952E1,1.2004229E1,1.0361131E1,7.063933E0,6.0111985E0,6.3555303E0,7.657167E0,9.173743E0,1.097878E2,1.1315323E1,6.090654E0,2.3528943E0],"tree_param":{"num_deleted":"0","num_feature":"23","num_nodes":"61","size_leaf_vector":"1"}},{"base_weights":[-1.2795081E-2,-1.1363341E-1,2.3122628E-1,2.3598352E-2,-2.7458248E-1,2.8715524E-1,-4.4528875E-1,-4.6887094E-1,8.261715E-2,-6.562421E-1,-1.9056453E-1,4.1217807E-1,1.935552E-2,3.3482602E-1,-9.135161E-1,1.0241244E-1,-6.755851E-1,1.3769612E-1,-3.870916E-1,-8.774723E-1,5.905286E-1,-2.9123962E-1,1.6010323E-1,-6.607801E-1,4.3954474E-1,1.740904E-1,-4.6356577E-1,-5.867247E-2,7.867282E-1,4.9142033E-1,-1.1871063E0,-3.9669003E-2,2.286589E-2,-5.5776592E-2,-1.6110837E-2,1.3210101E-3,1.8010058E-2,-6.694343E-2,-1.5823793E-3,-5.5836488E-2,1.1997304E-2,5.961573E-2,-1.3224778E-2,-2.6705388E-2,-6.9213803E-3,-4.467508E-2,1.4675555E-2,-1.10536076E-1,2.8387262E-3,2.3761068E-2,3.1052826E-3,1.2076068E-2,-7.805734E-2,-5.2689156E-3,-8.892638E-2,6.774995E-2,-1.5561256E-2,-4.387605E-2,6.092332E-2,-6.64589E-2,3.4702815E-2],"categories":[],"categories_nodes":[],"categories_segments":[],"categories_sizes":[],"default_left":[0,0,0,0,0,0,0,0,0,0,0,0,0,0,0,0,0,0,0,0,0,0,0,0,0,0,0,0,0,0,0,0,0,0,0,0,0,0,0,0,0,0,0,0,0,0,0,0,0,0,0,0,0,0,0,0,0,0,0,0,0],"id":25,"left_children":[1,3,5,7,9,11,13,15,17,19,21,23,25,27,29,31,33,35,37,39,41,43,45,47,49,51,53,-1,55,57,59,-1,-1,-1,-1,-1,-1,-1,-1,-1,-1,-1,-1,-1,-1,-1,-1,-1,-1,-1,-1,-1,-1,-1,-1,-1,-1,-1,-1,-1,-1],"loss_changes":[6.2479828E1,3.968855E1,2.8220592E1,2.8251244E1,2.6391426E1,2.2972923E1,2.115799E1,1.23541565E1,2.2500149E1,4.1556793E1,2.4022724E1,1.4028961E1,1.6483051E1,1.6016262E1,1.4398973E1,9.426375E0,1.1536556E1,1.9236425E1,3.08534E1,3.4158897E1,1.2160118E1,1.9522175E1,2.164587E1,1.3511946E1,6.122246E0,1.9913445E1,2.5029207E1,0E0,1.1426295E1,7.6039743E0,9.041119E0,0E0,0E0,0E0,0E0,0E0,0E0,0E0,0E0,0E0,0E0,0E0,0E0,0E0,0E0,0E0,0E0,0E0,0E0,0E0,0E0,0E0,0E0,0E0,0E0,0E0,0E0,0E0,0E0,0E0,0E0],"parents":[2147483647,0,0,1,1,2,2,3,3,4,4,5,5,6,6,7,7,8,8,9,9,10,10,11,11,12,12,13,13,14,14,15,15,16,16,17,17,18,18,19,19,20,20,21,21,22,22,23,23,24,24,25,25,26,26,28,28,29,29,30,30],"right_children":[2,4,6,8,10,12,14,16,18,20,22,24,26,28,30,32,34,36,38,40,42,44,46,48,50,52,54,-1,56,58,60,-1,-1,-1,-1,-1,-1,-1,-1,-1,-1,-1,-1,-1,-1,-1,-1,-1,-1,-1,-1,-1,-1,-1,-1,-1,-1,-1,-1,-1,-1],"split_conditions":[9.8E1,1E0,1E0,2.7E1,1.2E0,1E0,2.554096E4,1.4E0,1E0,1E0,3.9E1,2E0,8.72E-1,2.1E0,3E0,7.49E-1,4.640412E4,6.2E0,1.9E0,1E0,3.9E1,5.4E1,1.42969E4,4.215542E4,1E0,5.2E1,1E0,-5.867247E-2,1.13E2,5E0,2.43E1,-3.9669003E-2,2.286589E-2,-5.5776592E-2,-1.6110837E-2,1.3210101E-3,1.8010058E-2,-6.694343E-2,-1.5823793E-3,-5.5836488E-2,1.1997304E-2,5.961573E-2,-1.3224778E-2,-2.6705388E-2,-6.9213803E-3,-4.467508E-2,1.4675555E-2,-1.10536076E-1,2.8387262E-3,2.3761068E-2,3.1052826E-3,1.2076068E-2,-7.805734E-2,-5.2689156E-3,-8.892638E-2,6.774995E-2,-1.5561256E-2,-4.387605E-2,6.092332E-2,-6.64589E-2,3.4702815E-2],"split_indices":[1,22,16,1,6,18,0,6,8,12,3,3,4,6,3,4,0,6,6,17,1,1,0,0,7,3,21,0,1,6,6,0,0,0,0,0,0,0,0,0,0,0,0,0,0,0,0,0,0,0,0,0,0,0,0,0,0,0,0,0,0],"split_type":[0,0,0,0,0,0,0,0,0,0,0,0,0,0,0,0,0,0,0,0,0,0,0,0,0,0,0,0,0,0,0,0,0,0,0,0,0,0,0,0,0,0,0,0,0,0,0,0,0,0,0,0,0,0,0,0,0,0,0,0,0],"sum_hessian":[2.5370706E3,1.7955991E3,7.414713E2,9.696712E2,8.25928E2,6.8538464E2,5.6086697E1,1.0302847E2,8.6664276E2,1.4778587E2,6.781421E2,4.668811E2,2.185035E2,2.1143824E1,3.494287E1,2.7508759E1,7.5519714E1,7.7631714E2,9.032561E1,1.25765854E2,2.2020016E1,5.270096E2,1.5113252E2,1.10363455E1,4.558448E2,1.6596535E2,5.253816E1,4.5064244E0,1.6637398E1,5.5657125E0,2.937716E1,7.4554625E0,2.0053297E1,3.267821E1,4.2841507E1,5.182543E2,2.580629E2,2.3807964E1,6.651764E1,1.0358684E2,2.2179012E1,1.2692357E1,9.327659E0,2.025679E2,3.2444165E2,1.634538E1,1.3478716E2,2.8339689E0,8.202376E0,4.162414E2,3.9603374E1,1.6058583E2,5.379518E0,4.21397E1,1.0398457E1,1.0808895E1,5.828503E0,1.8588159E0,3.7068965E0,2.7587116E1,1.7900434E0],"tree_param":{"num_deleted":"0","num_feature":"23","num_nodes":"61","size_leaf_vector":"1"}},{"base_weights":[1.1396413E-2,6.612862E-2,-5.687973E-1,-1.2865421E-2,3.728249E-1,3.2729298E-1,-6.3007325E-1,-1.1285336E-1,1.6798376E-1,5.19591E-1,7.359211E-2,9.9052414E-2,-2.951818E-1,-4.3535706E-1,-8.7731385E-1,-8.881208E-2,-8.4384E-2,6.5054365E-2,4.7019905E-1,8.4747356E-1,4.3611214E-1,1.2609994E-1,-7.613782E-2,-6.0052913E-2,6.703995E-2,-2.0566815E-1,-9.626387E-1,-1.0020239E0,-3.1210564E-2,-7.687868E-3,1.4110605E-2,1.1838712E-2,-1.2308478E-2,-3.661797E-2,2.59188E-2,2.8958669E-2,4.8522532E-2,2.3456752E-2,-3.2936838E-2,2.1982107E-2,-7.858521E-3,-2.7336165E-2,2.169478E-2,-5.621158E-2,2.3130575E-2,-2.5809914E-2,-6.5319516E-2,-5.583762E-2,4.6043307E-2],"categories":[],"categories_nodes":[],"categories_segments":[],"categories_sizes":[],"default_left":[0,0,0,0,0,0,0,0,0,0,0,0,0,0,0,0,0,0,0,0,0,0,0,0,0,0,0,0,0,0,0,0,0,0,0,0,0,0,0,0,0,0,0,0,0,0,0,0,0],"id":26,"left_children":[1,3,5,7,9,11,13,15,17,19,21,-1,23,25,27,29,-1,31,33,35,37,39,-1,-1,-1,41,43,45,47,-1,-1,-1,-1,-1,-1,-1,-1,-1,-1,-1,-1,-1,-1,-1,-1,-1,-1,-1,-1],"loss_changes":[8.126697E1,5.6656925E1,1.231955E1,3.3660282E1,2.099636E1,1.5797668E1,9.575226E0,4.523153E1,2.058621E1,8.421562E0,1.3500892E1,0E0,1.8812061E1,1.4055614E1,9.480049E0,2.8517216E1,0E0,2.6542286E1,1.0125629E1,1.5535126E0,9.6393585E0,1.380423E1,0E0,0E0,0E0,1.8396523E1,8.682137E0,1.09375305E1,1.406254E1,0E0,0E0,0E0,0E0,0E0,0E0,0E0,0E0,0E0,0E0,0E0,0E0,0E0,0E0,0E0,0E0,0E0,0E0,0E0,0E0],"parents":[2147483647,0,0,1,1,2,2,3,3,4,4,5,5,6,6,7,7,8,8,9,9,10,10,12,12,13,13,14,14,15,15,17,17,18,18,19,19,20,20,21,21,25,25,26,26,27,27,28,28],"right_children":[2,4,6,8,10,12,14,16,18,20,22,-1,24,26,28,30,-1,32,34,36,38,40,-1,-1,-1,42,44,46,48,-1,-1,-1,-1,-1,-1,-1,-1,-1,-1,-1,-1,-1,-1,-1,-1,-1,-1,-1,-1],"split_conditions":[1E0,1E0,1E0,5.7E0,1E0,4E-1,3.5E1,1.79E2,6.9E1,5E0,9.57E-1,9.9052414E-2,4.5E1,8.47E-1,6E0,1E0,-8.4384E-2,1.5E1,8.30728E3,4.215542E4,1.49E1,3E0,-7.613782E-2,-6.0052913E-2,6.703995E-2,7.95E-1,1.7E1,2.1E0,7.3E0,-7.687868E-3,1.4110605E-2,1.1838712E-2,-1.2308478E-2,-3.661797E-2,2.59188E-2,2.8958669E-2,4.8522532E-2,2.3456752E-2,-3.2936838E-2,2.1982107E-2,-7.858521E-3,-2.7336165E-2,2.169478E-2,-5.621158E-2,2.3130575E-2,-2.5809914E-2,-6.5319516E-2,-5.583762E-2,4.6043307E-2],"split_indices":[16,9,5,6,18,6,2,2,2,3,4,0,3,4,5,17,0,3,0,0,6,5,0,0,0,4,3,6,6,0,0,0,0,0,0,0,0,0,0,0,0,0,0,0,0,0,0,0,0],"split_type":[0,0,0,0,0,0,0,0,0,0,0,0,0,0,0,0,0,0,0,0,0,0,0,0,0,0,0,0,0,0,0,0,0,0,0,0,0,0,0,0,0,0,0,0,0,0,0,0,0],"sum_hessian":[2.5569795E3,2.337371E3,2.196084E2,1.8594111E3,4.7796E2,1.3778113E1,2.0583029E2,1.1976371E3,6.61774E2,3.201823E2,1.5777768E2,3.171013E0,1.06071005E1,1.16690605E2,8.913969E1,1.1806694E3,1.6967688E1,4.9455292E2,1.6722104E2,6.3118347E1,2.5706396E2,1.5364493E2,4.1327524E0,6.9980073E0,3.6090934E0,8.2251236E1,3.4439373E1,7.7528244E1,1.1611437E1,1.00528644E3,1.7538301E2,3.1885938E2,1.7569356E2,5.894149E0,1.6132689E2,2.1632391E1,4.1485954E1,2.5009218E2,6.971786E0,7.2663826E1,8.098111E1,5.3739273E1,2.8511961E1,3.1122005E1,3.3173654E0,3.0900787E1,4.662746E1,5.3446226E0,6.2668138E0],"tree_param":{"num_deleted":"0","num_feature":"23","num_nodes":"49","size_leaf_vector":"1"}},{"base_weights":[2.2236923E-2,-8.030709E-2,3.5535273E-1,1.2156351E-2,-3.081417E-1,4.300464E-1,4.3266293E-2,1.3894056E-1,-1.370607E-1,-3.9166078E-1,3.6500463E-1,-7.866405E-1,4.5993674E-1,-5.635681E-1,3.7097E-1,-3.5069985E-3,3.302471E-1,-1.923225E-1,4.646777E-1,8.863405E-2,-5.2873176E-1,4.6940744E-1,-7.131122E-2,8.4677845E-2,-1.375159E0,3.7440675E-1,6.9289637E-1,-8.1518495E-1,6.8362635E-1,-6.6804536E-2,7.770851E-1,-5.1271063E-3,2.2894783E-2,-8.9587355E-3,2.2583654E-2,5.1601524E-3,-1.5581332E-2,-4.2919185E-2,3.479497E-2,9.333796E-3,-6.713306E-2,-6.034885E-2,-2.2144318E-2,3.2246213E-2,-3.3189267E-2,-6.7687936E-2,4.879366E-2,-1.9359658E-2,-8.886881E-2,2.6095495E-2,8.582091E-3,3.908263E-2,-8.0462396E-2,-8.9694E-3,-8.8947766E-2,-5.8826655E-2,5.9495267E-2,-4.6036832E-2,1.6213661E-2,-1.3530358E-2,4.332876E-2],"categories":[],"categories_nodes":[],"categories_segments":[],"categories_sizes":[],"default_left":[0,0,0,0,0,0,0,0,0,0,0,0,0,0,0,0,0,0,0,0,0,0,0,0,0,0,0,0,0,0,0,0,0,0,0,0,0,0,0,0,0,0,0,0,0,0,0,0,0,0,0,0,0,0,0,0,0,0,0,0,0],"id":27,"left_children":[1,3,5,7,9,11,13,15,17,19,21,23,25,27,29,31,33,35,37,39,41,43,-1,45,47,49,51,53,55,57,59,-1,-1,-1,-1,-1,-1,-1,-1,-1,-1,-1,-1,-1,-1,-1,-1,-1,-1,-1,-1,-1,-1,-1,-1,-1,-1,-1,-1,-1,-1],"loss_changes":[8.726751E1,4.1158863E1,1.3998543E1,2.632679E1,3.1851353E1,1.8002708E1,2.3522747E1,2.0502348E1,2.1347685E1,3.3110855E1,1.2408191E1,6.2699485E0,9.186592E0,1.3582677E1,1.3693311E1,1.9796732E1,1.9943058E1,2.0700869E1,1.713684E1,1.6018347E1,2.2223274E1,1.2374875E1,0E0,8.730282E0,2.1810303E0,1.0346691E1,2.7031506E1,2.1124298E1,8.47438E0,1.2937394E1,3.9738445E0,0E0,0E0,0E0,0E0,0E0,0E0,0E0,0E0,0E0,0E0,0E0,0E0,0E0,0E0,0E0,0E0,0E0,0E0,0E0,0E0,0E0,0E0,0E0,0E0,0E0,0E0,0E0,0E0,0E0,0E0],"parents":[2147483647,0,0,1,1,2,2,3,3,4,4,5,5,6,6,7,7,8,8,9,9,10,10,11,11,12,12,13,13,14,14,15,15,16,16,17,17,18,18,19,19,20,20,21,21,23,23,24,24,25,25,26,26,27,27,28,28,29,29,30,30],"right_children":[2,4,6,8,10,12,14,16,18,20,22,24,26,28,30,32,34,36,38,40,42,44,-1,46,48,50,52,54,56,58,60,-1,-1,-1,-1,-1,-1,-1,-1,-1,-1,-1,-1,-1,-1,-1,-1,-1,-1,-1,-1,-1,-1,-1,-1,-1,-1,-1,-1,-1,-1],"split_conditions":[1.05E2,1E0,8.99E-1,1E0,2.1500792E5,2E0,9.28E-1,7.3E1,1E0,2E0,1E0,7.12E-1,7.4E0,1.51E2,5.232637E4,1E0,6E0,2.457945E4,1.6E0,1E0,8E-1,1E0,-7.131122E-2,6.94E-1,1.9E0,1E0,1E0,3.4E0,3E0,1E0,5E-1,-5.1271063E-3,2.2894783E-2,-8.9587355E-3,2.2583654E-2,5.1601524E-3,-1.5581332E-2,-4.2919185E-2,3.479497E-2,9.333796E-3,-6.713306E-2,-6.034885E-2,-2.2144318E-2,3.2246213E-2,-3.3189267E-2,-6.7687936E-2,4.879366E-2,-1.9359658E-2,-8.886881E-2,2.6095495E-2,